{"learner":{"attributes":{"scikit_learn":"{\"_estimator_type\": \"classifier\"}"},"feature_names":["Fever","Cough","Runny_Nose","Sore_Throat","Headache","Fatigue"],"feature_types":["int","int","int","int","int","int"],"gradient_booster":{"model":{"gbtree_model_param":{"num_parallel_tree":"1","num_trees":"400"},"iteration_indptr":[0,4,8,12,16,20,24,28,32,36,40,44,48,52,56,60,64,68,72,76,80,84,88,92,96,100,104,108,112,116,120,124,128,132,136,140,144,148,152,156,160,164,168,172,176,180,184,188,192,196,200,204,208,212,216,220,224,228,232,236,240,244,248,252,256,260,264,268,272,276,280,284,288,292,296,300,304,308,312,316,320,324,328,332,336,340,344,348,352,356,360,364,368,372,376,380,384,388,392,396,400],"tree_info":[0,1,2,3,0,1,2,3,0,1,2,3,0,1,2,3,0,1,2,3,0,1,2,3,0,1,2,3,0,1,2,3,0,1,2,3,0,1,2,3,0,1,2,3,0,1,2,3,0,1,2,3,0,1,2,3,0,1,2,3,0,1,2,3,0,1,2,3,0,1,2,3,0,1,2,3,0,1,2,3,0,1,2,3,0,1,2,3,0,1,2,3,0,1,2,3,0,1,2,3,0,1,2,3,0,1,2,3,0,1,2,3,0,1,2,3,0,1,2,3,0,1,2,3,0,1,2,3,0,1,2,3,0,1,2,3,0,1,2,3,0,1,2,3,0,1,2,3,0,1,2,3,0,1,2,3,0,1,2,3,0,1,2,3,0,1,2,3,0,1,2,3,0,1,2,3,0,1,2,3,0,1,2,3,0,1,2,3,0,1,2,3,0,1,2,3,0,1,2,3,0,1,2,3,0,1,2,3,0,1,2,3,0,1,2,3,0,1,2,3,0,1,2,3,0,1,2,3,0,1,2,3,0,1,2,3,0,1,2,3,0,1,2,3,0,1,2,3,0,1,2,3,0,1,2,3,0,1,2,3,0,1,2,3,0,1,2,3,0,1,2,3,0,1,2,3,0,1,2,3,0,1,2,3,0,1,2,3,0,1,2,3,0,1,2,3,0,1,2,3,0,1,2,3,0,1,2,3,0,1,2,3,0,1,2,3,0,1,2,3,0,1,2,3,0,1,2,3,0,1,2,3,0,1,2,3,0,1,2,3,0,1,2,3,0,1,2,3,0,1,2,3,0,1,2,3,0,1,2,3,0,1,2,3,0,1,2,3,0,1,2,3,0,1,2,3,0,1,2,3,0,1,2,3,0,1,2,3,0,1,2,3,0,1,2,3,0,1,2,3],"trees":[{"base_weights":[1.1208792E0,1.5445545E0,5.7831323E-1,5.218605E-1,1.2690356E0,5.0454545E-1,-1.9024391E-1,5.551402E-1,5.3061223E-1,5.04E-1,-1.7142859E-1],"categories":[],"categories_nodes":[],"categories_segments":[],"categories_sizes":[],"default_left":[0,0,0,0,0,0,0,0,0,0,0],"id":0,"left_children":[1,3,5,-1,7,-1,-1,-1,9,-1,-1],"loss_changes":[2.0025093E1,5.053711E-1,5.659166E1,0E0,9.590683E0,0E0,0E0,0E0,1.6476734E1,0E0,0E0],"parents":[2147483647,0,0,1,1,2,2,4,4,8,8],"right_children":[2,4,6,-1,8,-1,-1,-1,10,-1,-1],"split_conditions":[1E0,1E0,1E0,5.218605E-1,1E0,5.0454545E-1,-1.9024391E-1,5.551402E-1,1E0,5.04E-1,-1.7142859E-1],"split_indices":[2,0,3,0,1,0,0,0,5,0,0],"split_type":[0,0,0,0,0,0,0,0,0,0,0],"sum_hessian":[9E1,4.95E1,4.05E1,2.5875E1,2.3625E1,2.1E1,1.95E1,1.2375E1,1.125E1,5.25E0,6E0],"tree_param":{"num_deleted":"0","num_feature":"6","num_nodes":"11","size_leaf_vector":"1"}},{"base_weights":[-1.3186814E-1,-1.960396E-1,5.060241E-1,-1.909091E-1,5.1219517E-1],"categories":[],"categories_nodes":[],"categories_segments":[],"categories_sizes":[],"default_left":[0,0,0,0,0],"id":1,"left_children":[1,-1,3,-1,-1],"loss_changes":[3.0608442E1,0E0,5.8038677E1,0E0,0E0],"parents":[2147483647,0,0,2,2],"right_children":[2,-1,4,-1,-1],"split_conditions":[1E0,-1.960396E-1,1E0,-1.909091E-1,5.1219517E-1],"split_indices":[2,0,3,0,0],"split_type":[0,0,0,0,0],"sum_hessian":[9E1,4.95E1,4.05E1,2.1E1,1.95E1],"tree_param":{"num_deleted":"0","num_feature":"6","num_nodes":"5","size_leaf_vector":"1"}},{"base_weights":[-6.043956E-1],"categories":[],"categories_nodes":[],"categories_segments":[],"categories_sizes":[],"default_left":[0],"id":2,"left_children":[-1],"loss_changes":[0E0],"parents":[2147483647],"right_children":[-1],"split_conditions":[-1.813187E-1],"split_indices":[0],"split_type":[0],"sum_hessian":[9E1],"tree_param":{"num_deleted":"0","num_feature":"6","num_nodes":"1","size_leaf_vector":"1"}},{"base_weights":[-3.846154E-1,-1.9600998E-1,-5.3731345E-2,-1.9058825E-1,5.202312E-1,-1.8367347E-1,5.421687E-1],"categories":[],"categories_nodes":[],"categories_segments":[],"categories_sizes":[],"default_left":[0,0,0,0,0,0,0],"id":3,"left_children":[1,-1,3,-1,5,-1,-1],"loss_changes":[8.057112E0,0E0,1.4308176E1,0E0,3.262478E1,0E0,0E0],"parents":[2147483647,0,0,2,2,4,4],"right_children":[2,-1,4,-1,6,-1,-1],"split_conditions":[1E0,-1.9600998E-1,1E0,-1.9058825E-1,1E0,-1.8367347E-1,5.421687E-1],"split_indices":[0,0,5,0,1,0,0],"split_type":[0,0,0,0,0,0,0],"sum_hessian":[9E1,4.9125E1,4.0875E1,2.025E1,2.0625E1,1.125E1,9.375E0],"tree_param":{"num_deleted":"0","num_feature":"6","num_nodes":"7","size_leaf_vector":"1"}},{"base_weights":[7.553192E-1,2.932554E-1,4.2532504E-1,3.1378922E-1,-1.7601062E-1],"categories":[],"categories_nodes":[],"categories_segments":[],"categories_sizes":[],"default_left":[0,0,0,0,0],"id":4,"left_children":[1,-1,3,-1,-1],"loss_changes":[7.294857E0,0E0,2.830362E1,0E0,0E0],"parents":[2147483647,0,0,2,2],"right_children":[2,-1,4,-1,-1],"split_conditions":[1E0,2.932554E-1,1E0,3.1378922E-1,-1.7601062E-1],"split_indices":[2,0,3,0,0],"split_type":[0,0,0,0,0],"sum_hessian":[1.0415773E2,6.1072712E1,4.308502E1,2.6685965E1,1.6399052E1],"tree_param":{"num_deleted":"0","num_feature":"6","num_nodes":"5","size_leaf_vector":"1"}},{"base_weights":[-1.1198391E-1,-1.8231113E-1,3.7691936E-1,-1.7676017E-1,3.179875E-1],"categories":[],"categories_nodes":[],"categories_segments":[],"categories_sizes":[],"default_left":[0,0,0,0,0],"id":5,"left_children":[1,-1,3,-1,-1],"loss_changes":[2.0874716E1,0E0,2.9333504E1,0E0,0E0],"parents":[2147483647,0,0,2,2],"right_children":[2,-1,4,-1,-1],"split_conditions":[1E0,-1.8231113E-1,1E0,-1.7676017E-1,3.179875E-1],"split_indices":[2,0,3,0,0],"split_type":[0,0,0,0,0],"sum_hessian":[8.418627E1,4.168107E1,4.25052E1,1.7661457E1,2.4843744E1],"tree_param":{"num_deleted":"0","num_feature":"6","num_nodes":"5","size_leaf_vector":"1"}},{"base_weights":[-5.516553E-1,-4.6784377E-1,-1.8276416E-1,-2.7373502E-1,-1.7843135E-1,4.8249517E-2,-1.6577558E-1,4.634286E-1,-1.4258997E-1,3.3404982E-1,-1.2375116E-1],"categories":[],"categories_nodes":[],"categories_segments":[],"categories_sizes":[],"default_left":[0,0,0,0,0,0,0,0,0,0,0],"id":6,"left_children":[1,3,-1,5,-1,7,-1,9,-1,-1,-1],"loss_changes":[8.8581085E-2,7.202306E-1,0E0,1.4652976E0,0E0,2.0365973E0,0E0,3.4013238E0,0E0,0E0,0E0],"parents":[2147483647,0,0,1,1,3,3,5,5,7,7],"right_children":[2,4,-1,6,-1,8,-1,10,-1,-1,-1],"split_conditions":[1E0,1E0,-1.8276416E-1,1E0,-1.7843135E-1,1E0,-1.6577558E-1,1E0,-1.4258997E-1,3.3404982E-1,-1.2375116E-1],"split_indices":[1,5,0,3,0,4,0,2,0,0,0],"split_type":[0,0,0,0,0,0,0,0,0,0,0],"sum_hessian":[7.644504E1,3.4840973E1,4.160407E1,1.5023031E1,1.9817942E1,7.35606E0,7.6669707E0,4.166681E0,3.1893795E0,2.2360137E0,1.9306672E0],"tree_param":{"num_deleted":"0","num_feature":"6","num_nodes":"11","size_leaf_vector":"1"}},{"base_weights":[-3.3513463E-1,-1.8260548E-1,-3.159271E-2,-1.7681646E-1,4.2422968E-1,-1.6931273E-1,3.6188936E-1],"categories":[],"categories_nodes":[],"categories_segments":[],"categories_sizes":[],"default_left":[0,0,0,0,0,0,0],"id":7,"left_children":[1,-1,3,-1,5,-1,-1],"loss_changes":[6.711302E0,0E0,1.0287348E1,0E0,1.7926731E1,0E0,0E0],"parents":[2147483647,0,0,2,2,4,4],"right_children":[2,-1,4,-1,6,-1,-1],"split_conditions":[1E0,-1.8260548E-1,1E0,-1.7681646E-1,1E0,-1.6931273E-1,3.6188936E-1],"split_indices":[0,0,5,0,1,0,0],"split_type":[0,0,0,0,0,0,0],"sum_hessian":[8.005757E1,4.158033E1,3.847724E1,1.7171385E1,2.1305857E1,9.533278E0,1.1772577E1],"tree_param":{"num_deleted":"0","num_feature":"6","num_nodes":"7","size_leaf_vector":"1"}},{"base_weights":[5.812955E-1,2.1880856E-1,3.4235698E-1,7.84185E-1,-1.6555056E-1,2.7011436E-1,5.815516E-1,2.4971671E-1,2.2114693E-1,2.2430141E-1,-1.6667022E-1],"categories":[],"categories_nodes":[],"categories_segments":[],"categories_sizes":[],"default_left":[0,0,0,0,0,0,0,0,0,0,0],"id":8,"left_children":[1,-1,3,5,-1,-1,7,-1,9,-1,-1],"loss_changes":[3.4960175E0,0E0,1.718088E1,1.5415001E-1,0E0,0E0,1.0196223E0,0E0,3.2068806E0,0E0,0E0],"parents":[2147483647,0,0,2,2,3,3,6,6,8,8],"right_children":[2,-1,4,6,-1,-1,8,-1,10,-1,-1],"split_conditions":[1E0,2.1880856E-1,1E0,1E0,-1.6555056E-1,2.7011436E-1,1E0,2.4971671E-1,1E0,2.2430141E-1,-1.6667022E-1],"split_indices":[2,0,3,0,0,0,5,0,1,0,0],"split_type":[0,0,0,0,0,0,0,0,0,0,0],"sum_hessian":[1.0487482E2,6.3482956E1,4.1391857E1,2.778572E1,1.3606139E1,1.5470859E1,1.2314861E1,6.488999E0,5.825863E0,3.4944282E0,2.3314347E0],"tree_param":{"num_deleted":"0","num_feature":"6","num_nodes":"11","size_leaf_vector":"1"}},{"base_weights":[-1.0158642E-1,-1.7242165E-1,3.0510816E-1,-1.6640353E-1,7.9566914E-1,2.6835734E-1,5.8223027E-1,2.4539953E-1,1.6672337E-1,2.0482293E-1,-1.5586697E-1],"categories":[],"categories_nodes":[],"categories_segments":[],"categories_sizes":[],"default_left":[0,0,0,0,0,0,0,0,0,0,0],"id":9,"left_children":[1,-1,3,-1,5,-1,7,-1,9,-1,-1],"loss_changes":[1.4779575E1,0E0,1.7931046E1,0E0,4.4927597E-2,0E0,9.7569585E-1,0E0,2.254836E0,0E0,0E0],"parents":[2147483647,0,0,2,2,4,4,6,6,8,8],"right_children":[2,-1,4,-1,6,-1,8,-1,10,-1,-1],"split_conditions":[1E0,-1.7242165E-1,1E0,-1.6640353E-1,1E0,2.6835734E-1,1E0,2.4539953E-1,1E0,2.0482293E-1,-1.5586697E-1],"split_indices":[2,0,3,0,0,0,5,0,1,0,0],"split_type":[0,0,0,0,0,0,0,0,0,0,0],"sum_hessian":[7.4894264E1,3.442763E1,4.0466633E1,1.4653438E1,2.5813194E1,1.5461234E1,1.035196E1,5.986441E0,4.3655195E0,2.4948068E0,1.8707126E0],"tree_param":{"num_deleted":"0","num_feature":"6","num_nodes":"11","size_leaf_vector":"1"}},{"base_weights":[-5.107976E-1,-4.2146736E-1,-1.7259505E-1,-2.2209342E-1,-1.6839229E-1,8.204507E-2,-1.5666538E-1,4.8311278E-1,-1.342351E-1,2.685798E-1,-1.0500515E-1],"categories":[],"categories_nodes":[],"categories_segments":[],"categories_sizes":[],"default_left":[0,0,0,0,0,0,0,0,0,0,0],"id":10,"left_children":[1,3,-1,5,-1,7,-1,9,-1,-1,-1],"loss_changes":[1.3393211E-1,7.431922E-1,0E0,1.3652141E0,0E0,1.9277393E0,0E0,2.0531845E0,0E0,0E0,0E0],"parents":[2147483647,0,0,1,1,3,3,5,5,7,7],"right_children":[2,4,-1,6,-1,8,-1,10,-1,-1,-1],"split_conditions":[1E0,1E0,-1.7259505E-1,1E0,-1.6839229E-1,1E0,-1.5666538E-1,1E0,-1.342351E-1,2.685798E-1,-1.0500515E-1],"split_indices":[1,5,0,0,0,3,0,2,0,0,0],"split_type":[0,0,0,0,0,0,0,0,0,0,0],"sum_hessian":[6.430859E1,3.0127672E1,3.4180916E1,1.3487039E1,1.6640635E1,7.0596256E0,6.4274135E0,4.066808E0,2.9928172E0,2.6709137E0,1.3958948E0],"tree_param":{"num_deleted":"0","num_feature":"6","num_nodes":"11","size_leaf_vector":"1"}},{"base_weights":[-2.9060668E-1,-1.7299269E-1,3.0971668E-3,-1.6661608E-1,4.0474352E-1,-1.5877081E-1,3.0254933E-1],"categories":[],"categories_nodes":[],"categories_segments":[],"categories_sizes":[],"default_left":[0,0,0,0,0,0,0],"id":11,"left_children":[1,-1,3,-1,5,-1,-1],"loss_changes":[5.9208555E0,0E0,8.245586E0,0E0,1.2588377E1,0E0,0E0],"parents":[2147483647,0,0,2,2,4,4],"right_children":[2,-1,4,-1,6,-1,-1],"split_conditions":[1E0,-1.7299269E-1,1E0,-1.6661608E-1,1E0,-1.5877081E-1,3.0254933E-1],"split_indices":[0,0,5,0,1,0,0],"split_type":[0,0,0,0,0,0,0],"sum_hessian":[6.9456924E1,3.4699776E1,3.475715E1,1.4379653E1,2.0377499E1,8.049195E0,1.2328303E1],"tree_param":{"num_deleted":"0","num_feature":"6","num_nodes":"7","size_leaf_vector":"1"}},{"base_weights":[4.8091215E-1,5.86711E-1,2.9681358E-1,6.5289474E-1,4.8939723E-1,6.535922E-1,-1.5683365E-1,4.931763E-1,2.2960521E-1,2.2786711E-1,1.2033498E-1,2.2348714E-1,4.883761E-1,1.3018455E-1,2.1832494E-1,2.1285959E-1,-1.6788962E-1,2.0718047E-1,1.877313E-1,-2.5764257E-1,1.7957738E-1,1.8735501E-1,-1.4466375E-1,-2.196754E-1,1.5582478E-1],"categories":[],"categories_nodes":[],"categories_segments":[],"categories_sizes":[],"default_left":[0,0,0,0,0,0,0,0,0,0,0,0,0,0,0,0,0,0,0,0,0,0,0,0,0],"id":12,"left_children":[1,3,5,7,9,11,-1,13,-1,-1,15,-1,17,19,-1,-1,-1,-1,21,23,-1,-1,-1,-1,-1],"loss_changes":[1.75243E0,7.844353E-2,1.1489199E1,2.2936153E-1,2.8006787E0,4.3816566E-2,0E0,1.3332744E0,0E0,0E0,5.784554E0,0E0,6.3150907E-1,1.571408E0,0E0,0E0,0E0,0E0,2.1762433E0,2.2121E0,0E0,0E0,0E0,0E0,0E0],"parents":[2147483647,0,0,1,1,2,2,3,3,4,4,5,5,7,7,10,10,12,12,13,13,18,18,19,19],"right_children":[2,4,6,8,10,12,-1,14,-1,-1,16,-1,18,20,-1,-1,-1,-1,22,24,-1,-1,-1,-1,-1],"split_conditions":[1E0,1E0,1E0,1E0,1E0,1E0,-1.5683365E-1,1E0,2.2960521E-1,2.2786711E-1,1E0,2.2348714E-1,1E0,1E0,2.1832494E-1,2.1285959E-1,-1.6788962E-1,2.0718047E-1,1E0,1E0,1.7957738E-1,1.8735501E-1,-1.4466375E-1,-2.196754E-1,1.5582478E-1],"split_indices":[2,0,3,3,1,0,0,1,0,0,5,0,5,5,0,0,0,0,1,4,0,0,0,0,0],"split_type":[0,0,0,0,0,0,0,0,0,0,0,0,0,0,0,0,0,0,0,0,0,0,0,0,0],"sum_hessian":[9.7913155E1,6.079067E1,3.7122486E1,3.2784527E1,2.8006144E1,2.6004812E1,1.1117675E1,1.5770945E1,1.701358E1,1.555878E1,1.2447364E1,1.4485384E1,1.1519429E1,6.8012714E0,8.969673E0,6.6455026E0,5.8018613E0,6.1115174E0,5.4079113E0,3.96682E0,2.8344517E0,3.3146536E0,2.093258E0,2.4984741E0,1.4683459E0],"tree_param":{"num_deleted":"0","num_feature":"6","num_nodes":"25","size_leaf_vector":"1"}},{"base_weights":[-9.425973E-2,-1.649731E-1,2.6568103E-1,-1.5775532E-1,1.9904634E-1],"categories":[],"categories_nodes":[],"categories_segments":[],"categories_sizes":[],"default_left":[0,0,0,0,0],"id":13,"left_children":[1,-1,3,-1,-1],"loss_changes":[1.083707E1,0E0,1.2028316E1,0E0,0E0],"parents":[2147483647,0,0,2,2],"right_children":[2,-1,4,-1,-1],"split_conditions":[1E0,-1.649731E-1,1E0,-1.5775532E-1,1.9904634E-1],"split_indices":[2,0,3,0,0],"split_type":[0,0,0,0,0],"sum_hessian":[6.418597E1,2.8093945E1,3.6092026E1,1.1964301E1,2.4127726E1],"tree_param":{"num_deleted":"0","num_feature":"6","num_nodes":"5","size_leaf_vector":"1"}},{"base_weights":[-4.751223E-1,-3.77707E-1,-1.6484763E-1,-1.7198622E-1,-1.6020589E-1,1.15259066E-1,-1.4687164E-1,4.570983E-1,-1.240305E-1,2.317095E-1,-9.879998E-2],"categories":[],"categories_nodes":[],"categories_segments":[],"categories_sizes":[],"default_left":[0,0,0,0,0,0,0,0,0,0,0],"id":14,"left_children":[1,3,-1,5,-1,7,-1,9,-1,-1,-1],"loss_changes":[1.8754482E-1,7.7022004E-1,0E0,1.2469001E0,0E0,1.5736617E0,0E0,1.5257852E0,0E0,0E0,0E0],"parents":[2147483647,0,0,1,1,3,3,5,5,7,7],"right_children":[2,4,-1,6,-1,8,-1,10,-1,-1,-1],"split_conditions":[1E0,1E0,-1.6484763E-1,1E0,-1.6020589E-1,1E0,-1.4687164E-1,1E0,-1.240305E-1,2.317095E-1,-9.879998E-2],"split_indices":[1,5,0,0,0,3,0,4,0,0,0],"split_type":[0,0,0,0,0,0,0,0,0,0,0],"sum_hessian":[5.3535007E1,2.5808197E1,2.7726809E1,1.2049841E1,1.3758357E1,6.661671E0,5.38817E0,4.128023E0,2.533648E0,2.9594984E0,1.1685247E0],"tree_param":{"num_deleted":"0","num_feature":"6","num_nodes":"11","size_leaf_vector":"1"}},{"base_weights":[-2.573986E-1,-1.6524023E-1,1.9062676E-2,-1.5833977E-1,3.6899582E-1,-1.499872E-1,2.535521E-1],"categories":[],"categories_nodes":[],"categories_segments":[],"categories_sizes":[],"default_left":[0,0,0,0,0,0,0],"id":15,"left_children":[1,-1,3,-1,5,-1,-1],"loss_changes":[4.899232E0,0E0,6.3179064E0,0E0,8.739582E0,0E0,0E0],"parents":[2147483647,0,0,2,2,4,4],"right_children":[2,-1,4,-1,6,-1,-1],"split_conditions":[1E0,-1.6524023E-1,1E0,-1.5833977E-1,1E0,-1.499872E-1,2.535521E-1],"split_indices":[0,0,5,0,1,0,0],"split_type":[0,0,0,0,0,0,0],"sum_hessian":[5.926966E1,2.8272436E1,3.0997223E1,1.189691E1,1.9100313E1,6.7438536E0,1.235646E1],"tree_param":{"num_deleted":"0","num_feature":"6","num_nodes":"7","size_leaf_vector":"1"}},{"base_weights":[4.2573598E-1,1.53692E-1,2.6927644E-1,5.7706445E-1,-1.4938925E-1,1.9762798E-1,4.3113908E-1,1.7881821E-1,1.6563953E-1,1.6219307E-1,-1.2701362E-1],"categories":[],"categories_nodes":[],"categories_segments":[],"categories_sizes":[],"default_left":[0,0,0,0,0,0,0,0,0,0,0],"id":16,"left_children":[1,-1,3,5,-1,-1,7,-1,9,-1,-1],"loss_changes":[1.0369244E0,0E0,8.08164E0,2.3288727E-3,0E0,0E0,4.0546775E-1,0E0,1.5093457E0,0E0,0E0],"parents":[2147483647,0,0,2,2,3,3,6,6,8,8],"right_children":[2,-1,4,6,-1,-1,8,-1,10,-1,-1],"split_conditions":[1E0,1.53692E-1,1E0,1E0,-1.4938925E-1,1.9762798E-1,1E0,1.7881821E-1,1E0,1.6219307E-1,-1.2701362E-1],"split_indices":[2,0,3,5,0,0,0,0,1,0,0],"split_type":[0,0,0,0,0,0,0,0,0,0,0],"sum_hessian":[8.5740074E1,5.3734074E1,3.2006004E1,2.3019371E1,8.986633E0,1.250446E1,1.0514911E1,5.7179875E0,4.7969227E0,2.981103E0,1.8158199E0],"tree_param":{"num_deleted":"0","num_feature":"6","num_nodes":"11","size_leaf_vector":"1"}},{"base_weights":[-8.992616E-2,-1.5869153E-1,2.3372763E-1,-1.5018004E-1,5.6772953E-1,1.9589815E-1,3.9094174E-1,1.7778583E-1,5.9905216E-2,1.4719392E-1,-1.3751051E-1],"categories":[],"categories_nodes":[],"categories_segments":[],"categories_sizes":[],"default_left":[0,0,0,0,0,0,0,0,0,0,0],"id":17,"left_children":[1,-1,3,-1,5,-1,7,-1,9,-1,-1],"loss_changes":[7.9049478E0,0E0,8.185703E0,0E0,8.557129E-2,0E0,6.22066E-1,0E0,1.3056679E0,0E0,0E0],"parents":[2147483647,0,0,2,2,4,4,6,6,8,8],"right_children":[2,-1,4,-1,6,-1,8,-1,10,-1,-1],"split_conditions":[1E0,-1.5869153E-1,1E0,-1.5018004E-1,1E0,1.9589815E-1,1E0,1.7778583E-1,1E0,1.4719392E-1,-1.3751051E-1],"split_indices":[2,0,3,0,0,0,5,0,1,0,0],"split_type":[0,0,0,0,0,0,0,0,0,0,0],"sum_hessian":[5.375989E1,2.2543974E1,3.1215916E1,9.603382E0,2.1612534E1,1.2763216E1,8.8493185E0,5.0080595E0,3.8412588E0,2.1268902E0,1.7143686E0],"tree_param":{"num_deleted":"0","num_feature":"6","num_nodes":"11","size_leaf_vector":"1"}},{"base_weights":[-4.4555876E-1,-3.4281227E-1,-1.5848544E-1,-1.448038E-1,-1.5276274E-1,1.0428028E-1,-1.3681611E-1,3.8087213E-1,-1.1764615E-1,2.1917856E-1,-1.0183518E-1],"categories":[],"categories_nodes":[],"categories_segments":[],"categories_sizes":[],"default_left":[0,0,0,0,0,0,0,0,0,0,0],"id":18,"left_children":[1,3,-1,5,-1,7,-1,9,-1,-1,-1],"loss_changes":[2.0245457E-1,6.8325996E-1,0E0,9.6924645E-1,0E0,1.1678767E0,0E0,1.5758085E0,0E0,0E0,0E0],"parents":[2147483647,0,0,1,1,3,3,5,5,7,7],"right_children":[2,4,-1,6,-1,8,-1,10,-1,-1,-1],"split_conditions":[1E0,1E0,-1.5848544E-1,1E0,-1.5276274E-1,1E0,-1.3681611E-1,1E0,-1.1764615E-1,2.1917856E-1,-1.0183518E-1],"split_indices":[1,5,0,3,0,4,0,2,0,0,0],"split_type":[0,0,0,0,0,0,0,0,0,0,0],"sum_hessian":[4.412527E1,2.1975471E1,2.21498E1,1.0888562E1,1.108691E1,6.41766E0,4.470902E0,4.2708883E0,2.1467721E0,2.865434E0,1.4054544E0],"tree_param":{"num_deleted":"0","num_feature":"6","num_nodes":"11","size_leaf_vector":"1"}},{"base_weights":[-2.3676689E-1,-1.5890738E-1,2.378027E-2,-1.5074298E-1,3.3344957E-1,-1.4123629E-1,2.174957E-1],"categories":[],"categories_nodes":[],"categories_segments":[],"categories_sizes":[],"default_left":[0,0,0,0,0,0,0],"id":19,"left_children":[1,-1,3,-1,5,-1,-1],"loss_changes":[3.847878E0,0E0,4.65774E0,0E0,5.992629E0,0E0,0E0],"parents":[2147483647,0,0,2,2,4,4],"right_children":[2,-1,4,-1,6,-1,-1],"split_conditions":[1E0,-1.5890738E-1,1E0,-1.5074298E-1,1E0,-1.4123629E-1,2.174957E-1],"split_indices":[0,0,5,0,1,0,0],"split_type":[0,0,0,0,0,0,0],"sum_hessian":[4.925224E1,2.2699245E1,2.6552994E1,9.60592E0,1.6947073E1,5.4827604E0,1.1464313E1],"tree_param":{"num_deleted":"0","num_feature":"6","num_nodes":"7","size_leaf_vector":"1"}},{"base_weights":[3.7500444E-1,4.3982553E-1,2.4807401E-1,3.5650265E-1,4.984086E-1,1.5702765E-1,-1.4241743E-1,2.3888382E-1,4.4920897E-1,1.821543E-1,3.441378E-1,6.754636E-2,4.176468E-1,1.7114675E-1,2.3764123E-1,1.6807473E-1,7.581997E-2,-1.12608396E-1,1.5057479E-1,1.5418682E-1,1.3629832E-2,1.4119728E-1,-6.0026295E-2,1.518135E-1,-1.3381776E-1,1.0130358E-1,-1.09973446E-1],"categories":[],"categories_nodes":[],"categories_segments":[],"categories_sizes":[],"default_left":[0,0,0,0,0,0,0,0,0,0,0,0,0,0,0,0,0,0,0,0,0,0,0,0,0,0,0],"id":20,"left_children":[1,3,5,7,9,-1,-1,11,13,-1,15,17,19,-1,21,-1,23,-1,-1,-1,-1,-1,25,-1,-1,-1,-1],"loss_changes":[5.112934E-1,5.9643745E-2,5.7780857E0,1.4985108E-1,2.2793722E-1,0E0,0E0,3.5559964E-1,1.7369366E-1,0E0,7.156662E-1,1.6488636E0,1.8957329E-1,0E0,4.5175153E-1,0E0,1.7949902E0,0E0,0E0,0E0,0E0,0E0,5.5876416E-1,0E0,0E0,0E0,0E0],"parents":[2147483647,0,0,1,1,2,2,3,3,4,4,7,7,8,8,10,10,11,11,12,12,14,14,16,16,22,22],"right_children":[2,4,6,8,10,-1,-1,12,14,-1,16,18,20,-1,22,-1,24,-1,-1,-1,-1,-1,26,-1,-1,-1,-1],"split_conditions":[1E0,1E0,1E0,1E0,1E0,1.5702765E-1,-1.4241743E-1,1E0,1E0,1.821543E-1,1E0,1E0,1E0,1.7114675E-1,1E0,1.6807473E-1,1E0,-1.12608396E-1,1.5057479E-1,1.5418682E-1,1.3629832E-2,1.4119728E-1,1E0,1.518135E-1,-1.3381776E-1,1.0130358E-1,-1.09973446E-1],"split_indices":[2,3,3,4,1,0,0,5,5,0,0,1,1,0,0,0,5,0,0,0,0,0,1,0,0,0,0],"split_type":[0,0,0,0,0,0,0,0,0,0,0,0,0,0,0,0,0,0,0,0,0,0,0,0,0,0,0],"sum_hessian":[7.440339E1,4.761974E1,2.6783646E1,2.2583942E1,2.5035799E1,1.9594807E1,7.18884E0,1.1531025E1,1.1052917E1,1.2961305E1,1.2074494E1,6.5913367E0,4.9396887E0,5.9472184E0,5.105698E0,6.085247E0,5.989248E0,3.3308563E0,3.2604804E0,3.6217616E0,1.3179269E0,2.5378773E0,2.5678208E0,3.2995315E0,2.6897166E0,1.0735339E0,1.494287E0],"tree_param":{"num_deleted":"0","num_feature":"6","num_nodes":"27","size_leaf_vector":"1"}},{"base_weights":[-8.783531E-2,-1.5366158E-1,2.1491449E-1,-1.4334157E-1,5.127659E-1,1.7673594E-1,3.4992445E-1,1.5864104E-1,5.3329095E-2,1.2981455E-1,-1.2046036E-1],"categories":[],"categories_nodes":[],"categories_segments":[],"categories_sizes":[],"default_left":[0,0,0,0,0,0,0,0,0,0,0],"id":21,"left_children":[1,-1,3,-1,5,-1,7,-1,9,-1,-1],"loss_changes":[5.9161196E0,0E0,5.832206E0,0E0,3.5303116E-2,0E0,4.31347E-1,0E0,9.280178E-1,0E0,0E0],"parents":[2147483647,0,0,2,2,4,4,6,6,8,8],"right_children":[2,-1,4,-1,6,-1,8,-1,10,-1,-1],"split_conditions":[1E0,-1.5366158E-1,1E0,-1.4334157E-1,1E0,1.7673594E-1,1E0,1.5864104E-1,1E0,1.2981455E-1,-1.2046036E-1],"split_indices":[2,0,3,0,0,0,5,0,1,0,0],"split_type":[0,0,0,0,0,0,0,0,0,0,0],"sum_hessian":[4.4190952E1,1.811166E1,2.607929E1,7.660025E0,1.8419264E1,1.0757491E1,7.6617737E0,4.290953E0,3.3708203E0,1.8644441E0,1.506376E0],"tree_param":{"num_deleted":"0","num_feature":"6","num_nodes":"11","size_leaf_vector":"1"}},{"base_weights":[-4.1495255E-1,-3.0323E-1,-1.5321349E-1,-1.0101156E-1,-1.4655143E-1,1.4689952E-1,-1.314225E-1,3.783547E-1,-1.0383428E-1,1.8384838E-1,-8.616939E-2],"categories":[],"categories_nodes":[],"categories_segments":[],"categories_sizes":[],"default_left":[0,0,0,0,0,0,0,0,0,0,0],"id":22,"left_children":[1,3,-1,5,-1,7,-1,9,-1,-1,-1],"loss_changes":[2.4372101E-1,6.871021E-1,0E0,9.550489E-1,0E0,9.172548E-1,0E0,9.8239374E-1,0E0,0E0,0E0],"parents":[2147483647,0,0,1,1,3,3,5,5,7,7],"right_children":[2,4,-1,6,-1,8,-1,10,-1,-1,-1],"split_conditions":[1E0,1E0,-1.5321349E-1,1E0,-1.4655143E-1,1E0,-1.314225E-1,1E0,-1.0383428E-1,1.8384838E-1,-8.616939E-2],"split_indices":[1,5,0,0,0,3,0,2,0,0,0],"split_type":[0,0,0,0,0,0,0,0,0,0,0],"sum_hessian":[3.6256336E1,1.8656412E1,1.7599926E1,9.659133E0,8.997279E0,5.8906918E0,3.7684412E0,4.166985E0,1.7237067E0,3.1400654E0,1.0269194E0],"tree_param":{"num_deleted":"0","num_feature":"6","num_nodes":"11","size_leaf_vector":"1"}},{"base_weights":[-2.1066202E-1,-1.5368947E-1,4.0242154E-2,-1.4439909E-1,3.2181534E-1,-1.3334455E-1,1.9767562E-1],"categories":[],"categories_nodes":[],"categories_segments":[],"categories_sizes":[],"default_left":[0,0,0,0,0,0,0],"id":23,"left_children":[1,-1,3,-1,5,-1,-1],"loss_changes":[3.199188E0,0E0,3.6582425E0,0E0,4.449508E0,0E0,0E0],"parents":[2147483647,0,0,2,2,4,4],"right_children":[2,-1,4,-1,6,-1,-1],"split_conditions":[1E0,-1.5368947E-1,1E0,-1.4439909E-1,1E0,-1.3334455E-1,1.9767562E-1],"split_indices":[0,0,1,0,5,0,0],"split_type":[0,0,0,0,0,0,0],"sum_hessian":[4.099917E1,1.814432E1,2.285485E1,7.7639174E0,1.5090934E1,4.513162E0,1.0577771E1],"tree_param":{"num_deleted":"0","num_feature":"6","num_nodes":"7","size_leaf_vector":"1"}},{"base_weights":[3.4387335E-1,4.0318158E-1,2.2429046E-1,3.2140267E-1,4.6218964E-1,4.6915844E-1,-1.3569415E-1,2.027544E-1,4.185501E-1,1.6772531E-1,3.172154E-1,1.6464655E-1,3.2099035E-1,4.411236E-2,3.8310117E-1,1.5774435E-1,2.1611734E-1,1.5446112E-1,5.5515844E-2,1.4537364E-1,8.550788E-2,-2.6156488E-1,1.3194187E-1,1.4082392E-1,3.0276177E-2,1.3091378E-1,-3.7226945E-2,1.3275556E-1,-1.2056921E-1,1.2776424E-1,-1.1247995E-1,-1.7507614E-1,1.0277928E-1],"categories":[],"categories_nodes":[],"categories_segments":[],"categories_sizes":[],"default_left":[0,0,0,0,0,0,0,0,0,0,0,0,0,0,0,0,0,0,0,0,0,0,0,0,0,0,0,0,0,0,0,0,0],"id":24,"left_children":[1,3,5,7,9,11,-1,13,15,-1,17,-1,19,21,23,-1,25,-1,27,-1,29,31,-1,-1,-1,-1,-1,-1,-1,-1,-1,-1,-1],"loss_changes":[3.615818E-1,5.098915E-2,4.0863404E0,1.5274E-1,1.2797976E-1,3.228998E-2,0E0,3.040984E-1,1.1206174E-1,0E0,5.413935E-1,0E0,2.8924072E-1,9.737052E-1,7.733816E-2,0E0,4.511481E-1,0E0,1.2155839E0,0E0,9.0145034E-1,1.1011419E0,0E0,0E0,0E0,0E0,0E0,0E0,0E0,0E0,0E0,0E0,0E0],"parents":[2147483647,0,0,1,1,2,2,3,3,4,4,5,5,7,7,8,8,10,10,12,12,13,13,14,14,16,16,18,18,20,20,21,21],"right_children":[2,4,6,8,10,12,-1,14,16,-1,18,-1,20,22,24,-1,26,-1,28,-1,30,32,-1,-1,-1,-1,-1,-1,-1,-1,-1,-1,-1],"split_conditions":[1E0,1E0,1E0,1E0,1E0,1E0,-1.3569415E-1,1E0,1E0,1.6772531E-1,1E0,1.6464655E-1,1E0,1E0,1E0,1.5774435E-1,1E0,1.5446112E-1,1E0,1.4537364E-1,1E0,1E0,1.3194187E-1,1.4082392E-1,3.0276177E-2,1.3091378E-1,-3.7226945E-2,1.3275556E-1,-1.2056921E-1,1.2776424E-1,-1.1247995E-1,-1.7507614E-1,1.0277928E-1],"split_indices":[2,3,3,4,0,0,0,0,0,0,5,0,5,1,1,0,1,0,1,0,1,5,0,0,0,0,0,0,0,0,0,0,0],"split_type":[0,0,0,0,0,0,0,0,0,0,0,0,0,0,0,0,0,0,0,0,0,0,0,0,0,0,0,0,0,0,0,0,0],"sum_hessian":[6.2733173E1,4.0349766E1,2.238341E1,1.9613832E1,2.0735935E1,1.6660463E1,5.7229443E0,1.0219552E1,9.3942795E0,1.071682E1,1.00191145E1,9.076427E0,7.584037E0,6.0990877E0,4.1204643E0,5.0963607E0,4.2979193E0,5.156861E0,4.862254E0,3.850973E0,3.7330637E0,3.6321719E0,2.4669156E0,2.6472256E0,1.4732388E0,2.4372635E0,1.8606557E0,2.6514823E0,2.2107716E0,2.1895423E0,1.5435213E0,2.3915288E0,1.2406431E0],"tree_param":{"num_deleted":"0","num_feature":"6","num_nodes":"33","size_leaf_vector":"1"}},{"base_weights":[-8.574898E-2,-1.4900224E-1,2.0005333E-1,-1.3691652E-1,4.7352865E-1,1.6282694E-1,3.1949222E-1,1.438445E-1,4.8607945E-2,1.1549259E-1,-1.0619936E-1],"categories":[],"categories_nodes":[],"categories_segments":[],"categories_sizes":[],"default_left":[0,0,0,0,0,0,0,0,0,0,0],"id":25,"left_children":[1,-1,3,-1,5,-1,7,-1,9,-1,-1],"loss_changes":[4.4282823E0,0E0,4.2467885E0,0E0,8.3971024E-4,0E0,3.0163145E-1,0E0,6.6399807E-1,0E0,0E0],"parents":[2147483647,0,0,2,2,4,4,6,6,8,8],"right_children":[2,-1,4,-1,6,-1,8,-1,10,-1,-1],"split_conditions":[1E0,-1.4900224E-1,1E0,-1.3691652E-1,1E0,1.6282694E-1,1E0,1.438445E-1,1E0,1.1549259E-1,-1.0619936E-1],"split_indices":[2,0,3,0,0,0,5,0,1,0,0],"split_type":[0,0,0,0,0,0,0,0,0,0,0],"sum_hessian":[3.585965E1,1.4407211E1,2.145244E1,6.112158E0,1.53402815E1,8.8426285E0,6.4976535E0,3.600857E0,2.8967965E0,1.6020848E0,1.2947117E0],"tree_param":{"num_deleted":"0","num_feature":"6","num_nodes":"11","size_leaf_vector":"1"}},{"base_weights":[-3.9102024E-1,-2.7599162E-1,-1.484565E-1,-8.5404776E-2,-1.4034417E-1,1.3621122E-1,-1.2455364E-1,9.8254554E-2,-9.8845E-2],"categories":[],"categories_nodes":[],"categories_segments":[],"categories_sizes":[],"default_left":[0,0,0,0,0,0,0,0,0],"id":26,"left_children":[1,3,-1,5,-1,7,-1,-1,-1],"loss_changes":[2.3105335E-1,5.765611E-1,0E0,7.6417255E-1,0E0,6.9089186E-1,0E0,0E0,0E0],"parents":[2147483647,0,0,1,1,3,3,5,5],"right_children":[2,4,-1,6,-1,8,-1,-1,-1],"split_conditions":[1E0,1E0,-1.484565E-1,1E0,-1.4034417E-1,1E0,-1.2455364E-1,9.8254554E-2,-9.8845E-2],"split_indices":[1,5,0,0,0,4,0,0,0],"split_type":[0,0,0,0,0,0,0,0,0],"sum_hessian":[2.9779484E1,1.58636465E1,1.3915838E1,8.682397E0,7.1812496E0,5.5437922E0,3.1386044E0,4.1398773E0,1.4039149E0],"tree_param":{"num_deleted":"0","num_feature":"6","num_nodes":"9","size_leaf_vector":"1"}},{"base_weights":[-1.9424126E-1,-1.4892946E-1,4.487253E-2,-1.3797238E-1,3.051616E-1,-1.2589444E-1,1.806741E-1],"categories":[],"categories_nodes":[],"categories_segments":[],"categories_sizes":[],"default_left":[0,0,0,0,0,0,0],"id":27,"left_children":[1,-1,3,-1,5,-1,-1],"loss_changes":[2.5221424E0,0E0,2.7984793E0,0E0,3.2564282E0,0E0,0E0],"parents":[2147483647,0,0,2,2,4,4],"right_children":[2,-1,4,-1,6,-1,-1],"split_conditions":[1E0,-1.4892946E-1,1E0,-1.3797238E-1,1E0,-1.2589444E-1,1.806741E-1],"split_indices":[0,0,5,0,1,0,0],"split_type":[0,0,0,0,0,0,0],"sum_hessian":[3.3596462E1,1.4365419E1,1.9231043E1,6.281797E0,1.2949246E1,3.644669E0,9.304578E0],"tree_param":{"num_deleted":"0","num_feature":"6","num_nodes":"7","size_leaf_vector":"1"}},{"base_weights":[3.2190093E-1,3.7253213E-1,2.1396545E-1,2.876771E-1,4.359701E-1,4.4153336E-1,-1.2895876E-1,1.7096013E-1,3.855072E-1,1.5733543E-1,2.931837E-1,1.5456212E-1,2.9859036E-1,1.8843506E-2,3.4506622E-1,1.4572793E-1,1.8706083E-1,1.3972394E-1,6.399536E-2,1.3450775E-1,7.339444E-2,-2.5266755E-1,1.1881349E-1,1.2707506E-1,2.6317025E-2,1.11775704E-1,-1.680034E-2,1.2262918E-1,-1.08803615E-1,1.1250698E-1,-1.00017436E-1,-1.5802824E-1,9.125326E-2],"categories":[],"categories_nodes":[],"categories_segments":[],"categories_sizes":[],"default_left":[0,0,0,0,0,0,0,0,0,0,0,0,0,0,0,0,0,0,0,0,0,0,0,0,0,0,0,0,0,0,0,0,0],"id":28,"left_children":[1,3,5,7,9,11,-1,13,15,-1,17,-1,19,21,23,-1,25,-1,27,-1,29,31,-1,-1,-1,-1,-1,-1,-1,-1,-1,-1,-1],"loss_changes":[2.1068573E-1,6.2026024E-2,3.019972E0,1.3775468E-1,7.346511E-2,1.6601086E-3,0E0,2.5648403E-1,8.632195E-2,0E0,3.3202314E-1,0E0,2.166847E-1,7.511519E-1,5.5232942E-2,0E0,2.2899587E-1,0E0,8.9685214E-1,0E0,6.344199E-1,8.176053E-1,0E0,0E0,0E0,0E0,0E0,0E0,0E0,0E0,0E0,0E0,0E0],"parents":[2147483647,0,0,1,1,2,2,3,3,4,4,5,5,7,7,8,8,10,10,12,12,13,13,14,14,16,16,18,18,20,20,21,21],"right_children":[2,4,6,8,10,12,-1,14,16,-1,18,-1,20,22,24,-1,26,-1,28,-1,30,32,-1,-1,-1,-1,-1,-1,-1,-1,-1,-1,-1],"split_conditions":[1E0,1E0,1E0,1E0,1E0,1E0,-1.2895876E-1,1E0,1E0,1.5733543E-1,1E0,1.5456212E-1,1E0,1E0,1E0,1.4572793E-1,1E0,1.3972394E-1,1E0,1.3450775E-1,1E0,1E0,1.1881349E-1,1.2707506E-1,2.6317025E-2,1.11775704E-1,-1.680034E-2,1.2262918E-1,-1.08803615E-1,1.1250698E-1,-1.00017436E-1,-1.5802824E-1,9.125326E-2],"split_indices":[2,3,3,4,1,5,0,0,5,0,0,0,1,1,1,0,0,0,5,0,0,5,0,0,0,0,0,0,0,0,0,0,0],"split_type":[0,0,0,0,0,0,0,0,0,0,0,0,0,0,0,0,0,0,0,0,0,0,0,0,0,0,0,0,0,0,0,0,0],"sum_hessian":[5.2138165E1,3.3821495E1,1.8316668E1,1.6836145E1,1.6985352E1,1.376536E1,4.5513086E0,8.929844E0,7.906301E0,8.836563E0,8.148788E0,7.365073E0,6.4002867E0,5.3573513E0,3.5724921E0,4.290819E0,3.6154819E0,4.05985E0,4.088938E0,3.24872E0,3.1515667E0,3.3070655E0,2.050286E0,2.242346E0,1.3301462E0,1.7482164E0,1.8672653E0,2.2847507E0,1.8041875E0,1.8545289E0,1.2970378E0,2.2524023E0,1.0546632E0],"tree_param":{"num_deleted":"0","num_feature":"6","num_nodes":"33","size_leaf_vector":"1"}},{"base_weights":[-8.336734E-2,-1.4464739E-1,1.9003284E-1,-1.3031614E-1,1.3317688E-1],"categories":[],"categories_nodes":[],"categories_segments":[],"categories_sizes":[],"default_left":[0,0,0,0,0],"id":29,"left_children":[1,-1,3,-1,-1],"loss_changes":[3.3558688E0,0E0,3.1224263E0,0E0,0E0],"parents":[2147483647,0,0,2,2],"right_children":[2,-1,4,-1,-1],"split_conditions":[1E0,-1.4464739E-1,1E0,-1.3031614E-1,1.3317688E-1],"split_indices":[2,0,3,0,0],"split_type":[0,0,0,0,0],"sum_hessian":[2.89391E1,1.1459838E1,1.7479261E1,4.8471656E0,1.2632096E1],"tree_param":{"num_deleted":"0","num_feature":"6","num_nodes":"5","size_leaf_vector":"1"}},{"base_weights":[-3.68666E-1,-2.4965593E-1,-1.4447992E-1,-6.5315515E-2,-1.3541776E-1,1.3451064E-1,-1.1566288E-1,1.0476596E-1,-9.7245336E-2],"categories":[],"categories_nodes":[],"categories_segments":[],"categories_sizes":[],"default_left":[0,0,0,0,0,0,0,0,0],"id":30,"left_children":[1,3,-1,5,-1,7,-1,-1,-1],"loss_changes":[2.2269106E-1,5.0972956E-1,0E0,6.1149025E-1,0E0,7.165351E-1,0E0,0E0,0E0],"parents":[2147483647,0,0,1,1,3,3,5,5],"right_children":[2,4,-1,6,-1,8,-1,-1,-1],"split_conditions":[1E0,1E0,-1.4447992E-1,1E0,-1.3541776E-1,1E0,-1.1566288E-1,1.0476596E-1,-9.7245336E-2],"split_indices":[3,4,0,2,0,0,0,0,0],"split_type":[0,0,0,0,0,0,0,0,0],"sum_hessian":[2.4514801E1,1.3499553E1,1.1015247E1,7.74562E0,5.753933E0,5.126542E0,2.6190777E0,3.6544354E0,1.4721068E0],"tree_param":{"num_deleted":"0","num_feature":"6","num_nodes":"9","size_leaf_vector":"1"}},{"base_weights":[-1.8384112E-1,-1.4433104E-1,4.156004E-2,-1.320991E-1,2.8436285E-1,-1.1840568E-1,1.6661626E-1],"categories":[],"categories_nodes":[],"categories_segments":[],"categories_sizes":[],"default_left":[0,0,0,0,0,0,0],"id":31,"left_children":[1,-1,3,-1,5,-1,-1],"loss_changes":[1.916238E0,0E0,2.1162066E0,0E0,2.413462E0,0E0,0E0],"parents":[2147483647,0,0,2,2,4,4],"right_children":[2,-1,4,-1,6,-1,-1],"split_conditions":[1E0,-1.4433104E-1,1E0,-1.320991E-1,1E0,-1.1840568E-1,1.6661626E-1],"split_indices":[0,0,1,0,5,0,0],"split_type":[0,0,0,0,0,0,0],"sum_hessian":[2.730076E1,1.1284356E1,1.6016403E1,5.093604E0,1.09228E1,2.9857569E0,7.9370427E0],"tree_param":{"num_deleted":"0","num_feature":"6","num_nodes":"7","size_leaf_vector":"1"}},{"base_weights":[3.0404198E-1,3.486359E-1,2.028512E-1,2.655116E-1,4.1301206E-1,1.2533198E-1,-1.2224557E-1,1.5872164E-1,3.5585916E-1,1.477151E-1,2.7517092E-1,2.1760665E-2,3.148488E-1,1.3418429E-1,1.696776E-1,1.2884277E-1,6.0842667E-2,-6.8138786E-2,1.11169286E-1,1.1565009E-1,2.3887495E-2,1.0060654E-1,-1.3662142E-2,1.11410536E-1,-9.811696E-2],"categories":[],"categories_nodes":[],"categories_segments":[],"categories_sizes":[],"default_left":[0,0,0,0,0,0,0,0,0,0,0,0,0,0,0,0,0,0,0,0,0,0,0,0,0],"id":32,"left_children":[1,3,5,7,9,-1,-1,11,13,-1,15,17,19,-1,21,-1,23,-1,-1,-1,-1,-1,-1,-1,-1],"loss_changes":[1.2868786E-1,4.703331E-2,2.257072E0,9.383619E-2,2.535677E-2,0E0,0E0,1.844308E-1,5.4054916E-2,0E0,2.2650456E-1,5.9110814E-1,3.754106E-2,0E0,1.6237366E-1,0E0,6.469474E-1,0E0,0E0,0E0,0E0,0E0,0E0,0E0,0E0],"parents":[2147483647,0,0,1,1,2,2,3,3,4,4,7,7,8,8,10,10,11,11,12,12,14,14,16,16],"right_children":[2,4,6,8,10,-1,-1,12,14,-1,16,18,20,-1,22,-1,24,-1,-1,-1,-1,-1,-1,-1,-1],"split_conditions":[1E0,1E0,1E0,1E0,1E0,1.2533198E-1,-1.2224557E-1,1E0,1E0,1.477151E-1,1E0,1E0,1E0,1.3418429E-1,1E0,1.2884277E-1,1E0,-6.8138786E-2,1.11169286E-1,1.1565009E-1,2.3887495E-2,1.0060654E-1,-1.3662142E-2,1.11410536E-1,-9.811696E-2],"split_indices":[2,3,3,4,1,0,0,0,5,0,0,1,1,0,0,0,5,0,0,0,0,0,0,0,0],"split_type":[0,0,0,0,0,0,0,0,0,0,0,0,0,0,0,0,0,0,0,0,0,0,0,0,0],"sum_hessian":[4.3190456E1,2.828164E1,1.4908818E1,1.4579961E1,1.3701677E1,1.1259452E1,3.6493666E0,7.945383E0,6.634578E0,7.062718E0,6.63896E0,4.839425E0,3.1059582E0,3.5090961E0,3.125482E0,3.2763433E0,3.3626163E0,3.0277777E0,1.811647E0,1.8972404E0,1.2087178E0,1.4505897E0,1.6748923E0,1.8912365E0,1.4713798E0],"tree_param":{"num_deleted":"0","num_feature":"6","num_nodes":"25","size_leaf_vector":"1"}},{"base_weights":[-8.533067E-2,-1.4033063E-1,1.7221026E-1,-1.2358304E-1,4.0381867E-1,1.4316227E-1,2.4403465E-1,1.2039843E-1,-2.5642102E-4,9.1472976E-2,-9.339006E-2],"categories":[],"categories_nodes":[],"categories_segments":[],"categories_sizes":[],"default_left":[0,0,0,0,0,0,0,0,0,0,0],"id":33,"left_children":[1,-1,3,-1,5,-1,7,-1,9,-1,-1],"loss_changes":[2.4926257E0,0E0,2.2452135E0,0E0,1.8490791E-2,0E0,2.1792021E-1,0E0,4.0052724E-1,0E0,0E0],"parents":[2147483647,0,0,2,2,4,4,6,6,8,8],"right_children":[2,-1,4,-1,6,-1,8,-1,10,-1,-1],"split_conditions":[1E0,-1.4033063E-1,1E0,-1.2358304E-1,1E0,1.4316227E-1,1E0,1.2039843E-1,1E0,9.1472976E-2,-9.339006E-2],"split_indices":[2,0,3,0,0,0,5,0,1,0,0],"split_type":[0,0,0,0,0,0,0,0,0,0,0],"sum_hessian":[2.3489656E1,9.124237E0,1.4365419E1,3.857518E0,1.0507902E1,5.839322E0,4.6685796E0,2.4489374E0,2.2196422E0,1.1303607E0,1.0892814E0],"tree_param":{"num_deleted":"0","num_feature":"6","num_nodes":"11","size_leaf_vector":"1"}},{"base_weights":[-3.490181E-1,-2.2697613E-1,-1.3991281E-1,-4.6678256E-2,-1.2884521E-1,1.3198648E-1,-1.07284494E-1,8.474149E-2,-8.146054E-2],"categories":[],"categories_nodes":[],"categories_segments":[],"categories_sizes":[],"default_left":[0,0,0,0,0,0,0,0,0],"id":34,"left_children":[1,3,-1,5,-1,7,-1,-1,-1],"loss_changes":[1.9823813E-1,4.311018E-1,0E0,4.7265783E-1,0E0,4.1640374E-1,0E0,0E0,0E0],"parents":[2147483647,0,0,1,1,3,3,5,5],"right_children":[2,4,-1,6,-1,8,-1,-1,-1],"split_conditions":[1E0,1E0,-1.3991281E-1,1E0,-1.2884521E-1,1E0,-1.07284494E-1,8.474149E-2,-8.146054E-2],"split_indices":[1,5,0,0,0,2,0,0,0],"split_type":[0,0,0,0,0,0,0,0,0],"sum_hessian":[2.0231773E1,1.1356282E1,8.87549E0,6.658528E0,4.697755E0,4.5942082E0,2.0643196E0,3.56478E0,1.0294281E0],"tree_param":{"num_deleted":"0","num_feature":"6","num_nodes":"9","size_leaf_vector":"1"}},{"base_weights":[-1.6863255E-1,-1.3992043E-1,4.8985105E-2,-1.2572694E-1,2.7738705E-1,-1.1092241E-1,1.5737292E-1],"categories":[],"categories_nodes":[],"categories_segments":[],"categories_sizes":[],"default_left":[0,0,0,0,0,0,0],"id":35,"left_children":[1,-1,3,-1,5,-1,-1],"loss_changes":[1.5352268E0,0E0,1.6546118E0,0E0,1.8371471E0,0E0,0E0],"parents":[2147483647,0,0,2,2,4,4],"right_children":[2,-1,4,-1,6,-1,-1],"split_conditions":[1E0,-1.3992043E-1,1E0,-1.2572694E-1,1E0,-1.1092241E-1,1.5737292E-1],"split_indices":[0,0,5,0,1,0,0],"split_type":[0,0,0,0,0,0,0],"sum_hessian":[2.2339285E1,8.949863E0,1.3389421E1,4.1171246E0,9.272296E0,2.4258273E0,6.846469E0],"tree_param":{"num_deleted":"0","num_feature":"6","num_nodes":"7","size_leaf_vector":"1"}},{"base_weights":[2.8397495E-1,3.2581902E-1,1.8472688E-1,2.4008779E-1,1.1867613E-1,3.818683E-1,-1.1520341E-1,1.3298978E-1,3.3382702E-1,1.371107E-1,2.2917056E-1,-1.4517896E-3,8.609505E-2,1.2535165E-1,1.547715E-1,1.1158789E-1,2.7327895E-2,-8.4717214E-2,1.0761828E-1,9.0420455E-2,-1.0751073E-2,9.295158E-2,-8.83109E-2],"categories":[],"categories_nodes":[],"categories_segments":[],"categories_sizes":[],"default_left":[0,0,0,0,0,0,0,0,0,0,0,0,0,0,0,0,0,0,0,0,0,0,0],"id":36,"left_children":[1,3,5,7,-1,9,-1,11,13,-1,15,17,-1,-1,19,-1,21,-1,-1,-1,-1,-1,-1],"loss_changes":[9.403801E-2,5.3441763E-2,1.6404321E0,9.2912614E-2,0E0,1.4572501E-2,0E0,1.6699125E-1,3.5082757E-2,0E0,1.4647022E-1,6.3664836E-1,0E0,0E0,1.1438144E-1,0E0,3.939429E-1,0E0,0E0,0E0,0E0,0E0,0E0],"parents":[2147483647,0,0,1,1,2,2,3,3,5,5,7,7,8,8,10,10,11,11,14,14,16,16],"right_children":[2,4,6,8,-1,10,-1,12,14,-1,16,18,-1,-1,20,-1,22,-1,-1,-1,-1,-1,-1],"split_conditions":[1E0,1E0,1E0,1E0,1.1867613E-1,1E0,-1.1520341E-1,1E0,1E0,1.371107E-1,1E0,1E0,8.609505E-2,1.2535165E-1,1E0,1.1158789E-1,1E0,-8.4717214E-2,1.0761828E-1,9.0420455E-2,-1.0751073E-2,9.295158E-2,-8.83109E-2],"split_indices":[2,3,3,4,0,0,0,5,5,0,5,1,0,0,0,0,1,0,0,0,0,0,0],"split_type":[0,0,0,0,0,0,0,0,0,0,0,0,0,0,0,0,0,0,0,0,0,0,0],"sum_hessian":[3.6136448E1,2.381353E1,1.2322917E1,1.2677096E1,1.1136433E1,9.394928E0,2.9279892E0,7.045856E0,5.631241E0,4.960157E0,4.434771E0,4.2905965E0,2.7552595E0,2.9251878E0,2.7060528E0,2.1037211E0,2.33105E0,2.5317838E0,1.7588127E0,1.2009408E0,1.505112E0,1.260744E0,1.0703058E0],"tree_param":{"num_deleted":"0","num_feature":"6","num_nodes":"23","size_leaf_vector":"1"}},{"base_weights":[-8.505934E-2,-1.3599826E-1,1.6338585E-1,-1.1678531E-1,1.14871226E-1],"categories":[],"categories_nodes":[],"categories_segments":[],"categories_sizes":[],"default_left":[0,0,0,0,0],"id":37,"left_children":[1,-1,3,-1,-1],"loss_changes":[1.9040365E0,0E0,1.6872318E0,0E0,0E0],"parents":[2147483647,0,0,2,2],"right_children":[2,-1,4,-1,-1],"split_conditions":[1E0,-1.3599826E-1,1E0,-1.1678531E-1,1.14871226E-1],"split_indices":[2,0,3,0,0],"split_type":[0,0,0,0,0],"sum_hessian":[1.9000875E1,7.3223543E0,1.1678521E1,3.100127E0,8.578394E0],"tree_param":{"num_deleted":"0","num_feature":"6","num_nodes":"5","size_leaf_vector":"1"}},{"base_weights":[-3.2728553E-1,-2.0549414E-1,-1.3591562E-1,-3.6956158E-2,-1.2286573E-1,1.1847635E-1,-9.882917E-2,8.3358474E-2,-8.1763186E-2],"categories":[],"categories_nodes":[],"categories_segments":[],"categories_sizes":[],"default_left":[0,0,0,0,0,0,0,0,0],"id":38,"left_children":[1,3,-1,5,-1,7,-1,-1,-1],"loss_changes":[1.8059516E-1,3.5999805E-1,0E0,3.6056724E-1,0E0,4.0940607E-1,0E0,0E0,0E0],"parents":[2147483647,0,0,1,1,3,3,5,5],"right_children":[2,4,-1,6,-1,8,-1,-1,-1],"split_conditions":[1E0,1E0,-1.3591562E-1,1E0,-1.2286573E-1,1E0,-9.882917E-2,8.3358474E-2,-8.1763186E-2],"split_indices":[4,3,0,2,0,0,0,0,0],"split_type":[0,0,0,0,0,0,0,0,0],"sum_hessian":[1.6868351E1,9.90772E0,6.960631E0,6.0729723E0,3.8347473E0,4.3540006E0,1.7189716E0,3.2987702E0,1.0552303E0],"tree_param":{"num_deleted":"0","num_feature":"6","num_nodes":"9","size_leaf_vector":"1"}},{"base_weights":[-1.5447201E-1,-1.3540721E-1,5.4921325E-2,-1.19533285E-1,2.7029833E-1,-1.03531815E-1,1.4952435E-1],"categories":[],"categories_nodes":[],"categories_segments":[],"categories_sizes":[],"default_left":[0,0,0,0,0,0,0],"id":39,"left_children":[1,-1,3,-1,5,-1,-1],"loss_changes":[1.230706E0,0E0,1.3054916E0,0E0,1.4231026E0,0E0,0E0],"parents":[2147483647,0,0,2,2,4,4],"right_children":[2,-1,4,-1,6,-1,-1],"split_conditions":[1E0,-1.3540721E-1,1E0,-1.19533285E-1,1E0,-1.03531815E-1,1.4952435E-1],"split_indices":[0,0,1,0,5,0,0],"split_type":[0,0,0,0,0,0,0],"sum_hessian":[1.8398392E1,7.1315203E0,1.1266871E1,3.3548899E0,7.9119816E0,2.000972E0,5.9110093E0],"tree_param":{"num_deleted":"0","num_feature":"6","num_nodes":"7","size_leaf_vector":"1"}},{"base_weights":[2.6470426E-1,2.983606E-1,1.7588279E-1,2.2055613E-1,3.6119413E-1,1.0929944E-1,-1.08189076E-1,1.2172014E-1,3.095777E-1,1.3274586E-1,2.1426088E-1,-3.4013088E-3,7.9327926E-2,1.1560457E-1,1.3998099E-1,1.0940575E-1,1.610178E-2,-7.637708E-2,1.00257196E-1,9.261035E-2,-3.424338E-2,9.107891E-2,-8.7386444E-2],"categories":[],"categories_nodes":[],"categories_segments":[],"categories_sizes":[],"default_left":[0,0,0,0,0,0,0,0,0,0,0,0,0,0,0,0,0,0,0,0,0,0,0],"id":40,"left_children":[1,3,5,7,9,-1,-1,11,13,-1,15,17,-1,-1,19,-1,21,-1,-1,-1,-1,-1,-1],"loss_changes":[4.14145E-2,2.4667501E-2,1.250299E0,6.880647E-2,2.7482867E-2,0E0,0E0,1.327321E-1,1.9559264E-2,0E0,1.6062328E-1,5.0240594E-1,0E0,0E0,1.7830415E-1,0E0,3.9389905E-1,0E0,0E0,0E0,0E0,0E0,0E0],"parents":[2147483647,0,0,1,1,2,2,3,3,4,4,7,7,8,8,10,10,11,11,14,14,16,16],"right_children":[2,4,6,8,10,-1,-1,12,14,-1,16,18,-1,-1,20,-1,22,-1,-1,-1,-1,-1,-1],"split_conditions":[1E0,1E0,1E0,1E0,1E0,1.0929944E-1,-1.08189076E-1,1E0,1E0,1.3274586E-1,1E0,1E0,7.9327926E-2,1.1560457E-1,1E0,1.0940575E-1,1E0,-7.637708E-2,1.00257196E-1,9.261035E-2,-3.424338E-2,9.107891E-2,-8.7386444E-2],"split_indices":[2,3,3,4,1,0,0,5,0,0,0,1,0,0,1,0,5,0,0,0,0,0,0],"split_type":[0,0,0,0,0,0,0,0,0,0,0,0,0,0,0,0,0,0,0,0,0,0,0],"sum_hessian":[3.0407951E1,2.0341158E1,1.0066794E1,1.110295E1,9.238208E0,7.687507E0,2.3792875E0,6.3832617E0,4.7196884E0,4.652626E0,4.585582E0,3.9213133E0,2.4619482E0,2.3829224E0,2.3367662E0,2.1290362E0,2.4565454E0,2.3893533E0,1.5319601E0,1.275303E0,1.0614632E0,1.2757281E0,1.1808174E0],"tree_param":{"num_deleted":"0","num_feature":"6","num_nodes":"23","size_leaf_vector":"1"}},{"base_weights":[-8.756538E-2,-1.314305E-1,1.4746882E-1,-1.09665886E-1,3.490385E-1,1.2720469E-1,1.8635562E-1,1.0123236E-1,-9.477959E-3],"categories":[],"categories_nodes":[],"categories_segments":[],"categories_sizes":[],"default_left":[0,0,0,0,0,0,0,0,0],"id":41,"left_children":[1,-1,3,-1,5,-1,7,-1,-1],"loss_changes":[1.4303174E0,0E0,1.2311064E0,0E0,2.0668983E-2,0E0,1.5431194E-1,0E0,0E0],"parents":[2147483647,0,0,2,2,4,4,6,6],"right_children":[2,-1,4,-1,6,-1,8,-1,-1],"split_conditions":[1E0,-1.314305E-1,1E0,-1.09665886E-1,1E0,1.2720469E-1,1E0,1.0123236E-1,-9.477959E-3],"split_indices":[2,0,3,0,0,0,5,0,0],"split_type":[0,0,0,0,0,0,0,0,0],"sum_hessian":[1.5576576E1,5.9052854E0,9.671291E0,2.4985688E0,7.1727223E0,3.810261E0,3.362461E0,1.662046E0,1.7004153E0],"tree_param":{"num_deleted":"0","num_feature":"6","num_nodes":"9","size_leaf_vector":"1"}},{"base_weights":[-3.0873471E-1,-1.8448743E-1,-1.3096426E-1,-1.2619832E-2,-1.17947005E-1,4.2348154E-2,-9.266069E-2],"categories":[],"categories_nodes":[],"categories_segments":[],"categories_sizes":[],"default_left":[0,0,0,0,0,0,0],"id":42,"left_children":[1,3,-1,5,-1,-1,-1],"loss_changes":[1.6060817E-1,3.3329841E-1,0E0,3.2629126E-1,0E0,0E0,0E0],"parents":[2147483647,0,0,1,1,3,3],"right_children":[2,4,-1,6,-1,-1,-1],"split_conditions":[1E0,1E0,-1.3096426E-1,1E0,-1.17947005E-1,4.2348154E-2,-9.266069E-2],"split_indices":[1,5,0,0,0,0,0],"split_type":[0,0,0,0,0,0,0],"sum_hessian":[1.4185119E1,8.431879E0,5.7532396E0,5.20518E0,3.2266989E0,3.771128E0,1.4340523E0],"tree_param":{"num_deleted":"0","num_feature":"6","num_nodes":"7","size_leaf_vector":"1"}},{"base_weights":[-1.3235702E-1,-1.3057537E-1,6.9103405E-2,-1.1352285E-1,2.736285E-1,-9.611235E-2,1.4414886E-1],"categories":[],"categories_nodes":[],"categories_segments":[],"categories_sizes":[],"default_left":[0,0,0,0,0,0,0],"id":43,"left_children":[1,-1,3,-1,5,-1,-1],"loss_changes":[1.0324181E0,0E0,1.0854354E0,0E0,1.1299951E0,0E0,0E0],"parents":[2147483647,0,0,2,2,4,4],"right_children":[2,-1,4,-1,6,-1,-1],"split_conditions":[1E0,-1.3057537E-1,1E0,-1.1352285E-1,1E0,-9.611235E-2,1.4414886E-1],"split_indices":[0,0,1,0,5,0,0],"split_type":[0,0,0,0,0,0,0],"sum_hessian":[1.542611E1,5.698292E0,9.7278185E0,2.7846518E0,6.9431663E0,1.6517147E0,5.291452E0],"tree_param":{"num_deleted":"0","num_feature":"6","num_nodes":"7","size_leaf_vector":"1"}},{"base_weights":[2.4679363E-1,2.7855322E-1,1.5961923E-1,1.9723599E-1,3.4751832E-1,3.3431873E-1,-1.01303294E-1,9.636995E-2,2.9255247E-1,1.2574567E-1,2.0249604E-1,1.228577E-1,1.7638293E-1,-2.7508358E-2,7.32423E-2,1.0868009E-1,3.6683064E-2,1.0028759E-1,5.2853096E-3,9.565062E-2,-6.31523E-3,-6.300896E-2,8.4996246E-2],"categories":[],"categories_nodes":[],"categories_segments":[],"categories_sizes":[],"default_left":[0,0,0,0,0,0,0,0,0,0,0,0,0,0,0,0,0,0,0,0,0,0,0],"id":44,"left_children":[1,3,5,7,9,11,-1,13,15,-1,17,-1,19,21,-1,-1,-1,-1,-1,-1,-1,-1,-1],"loss_changes":[2.941668E-2,3.361714E-2,9.3542963E-1,7.4410915E-2,3.888607E-3,1.6956687E-2,0E0,1.289308E-1,1.5006602E-2,0E0,1.1008793E-1,0E0,1.2423922E-1,3.1653595E-1,0E0,0E0,0E0,0E0,0E0,0E0,0E0,0E0,0E0],"parents":[2147483647,0,0,1,1,2,2,3,3,4,4,5,5,7,7,8,8,10,10,12,12,13,13],"right_children":[2,4,6,8,10,12,-1,14,16,-1,18,-1,20,22,-1,-1,-1,-1,-1,-1,-1,-1,-1],"split_conditions":[1E0,1E0,1E0,1E0,1E0,1E0,-1.01303294E-1,1E0,1E0,1.2574567E-1,1E0,1.228577E-1,1E0,1E0,7.32423E-2,1.0868009E-1,3.6683064E-2,1.0028759E-1,5.2853096E-3,9.565062E-2,-6.31523E-3,-6.300896E-2,8.4996246E-2],"split_indices":[2,3,3,4,1,5,0,0,5,0,0,0,1,1,0,0,0,0,0,0,0,0,0],"split_type":[0,0,0,0,0,0,0,0,0,0,0,0,0,0,0,0,0,0,0,0,0,0,0],"sum_hessian":[2.5684496E1,1.7216711E1,8.467786E0,9.6721525E0,7.5445585E0,6.508936E0,1.9588495E0,5.676357E0,3.9957957E0,3.7847948E0,3.7597637E0,3.330167E0,3.1787689E0,3.5305214E0,2.1458354E0,2.0350635E0,1.9607321E0,1.7231753E0,2.0365884E0,1.4893059E0,1.6894629E0,2.428675E0,1.1018466E0],"tree_param":{"num_deleted":"0","num_feature":"6","num_nodes":"23","size_leaf_vector":"1"}},{"base_weights":[-8.466819E-2,-1.2654725E-1,1.3999064E-1,-1.0259227E-1,3.2887852E-1,1.1963835E-1,1.7233966E-1,9.288029E-2,-7.348329E-3],"categories":[],"categories_nodes":[],"categories_segments":[],"categories_sizes":[],"default_left":[0,0,0,0,0,0,0,0,0],"id":45,"left_children":[1,-1,3,-1,5,-1,7,-1,-1],"loss_changes":[1.1072408E0,0E0,9.36857E-1,0E0,8.054197E-3,0E0,1.13682784E-1,0E0,0E0],"parents":[2147483647,0,0,2,2,4,4,6,6],"right_children":[2,-1,4,-1,6,-1,8,-1,-1],"split_conditions":[1E0,-1.2654725E-1,1E0,-1.0259227E-1,1E0,1.1963835E-1,1E0,9.288029E-2,-7.348329E-3],"split_indices":[2,0,3,0,0,0,5,0,0],"split_type":[0,0,0,0,0,0,0,0,0],"sum_hessian":[1.2838386E1,4.782878E0,8.055508E0,2.0399432E0,6.0155644E0,3.088536E0,2.9270287E0,1.3869458E0,1.5400829E0],"tree_param":{"num_deleted":"0","num_feature":"6","num_nodes":"9","size_leaf_vector":"1"}},{"base_weights":[-2.885707E-1,-1.6692263E-1,-1.2631479E-1,-1.8636284E-2,-1.1015283E-1,3.4134105E-2,-8.672737E-2],"categories":[],"categories_nodes":[],"categories_segments":[],"categories_sizes":[],"default_left":[0,0,0,0,0,0,0],"id":46,"left_children":[1,3,-1,5,-1,-1,-1],"loss_changes":[1.4045572E-1,2.4478433E-1,0E0,2.4497832E-1,0E0,0E0,0E0],"parents":[2147483647,0,0,1,1,3,3],"right_children":[2,4,-1,6,-1,-1,-1],"split_conditions":[1E0,1E0,-1.2631479E-1,1E0,-1.1015283E-1,3.4134105E-2,-8.672737E-2],"split_indices":[4,3,0,0,0,0,0],"split_type":[0,0,0,0,0,0,0],"sum_hessian":[1.2076528E1,7.473762E0,4.602765E0,4.9220676E0,2.5516944E0,3.6931672E0,1.2289003E0],"tree_param":{"num_deleted":"0","num_feature":"6","num_nodes":"7","size_leaf_vector":"1"}},{"base_weights":[-1.1786973E-1,-1.253709E-1,7.357213E-2,-1.0741064E-1,2.6751736E-1,-8.955219E-2,1.383859E-1],"categories":[],"categories_nodes":[],"categories_segments":[],"categories_sizes":[],"default_left":[0,0,0,0,0,0,0],"id":47,"left_children":[1,-1,3,-1,5,-1,-1],"loss_changes":[8.301216E-1,0E0,8.781398E-1,0E0,9.077373E-1,0E0,0E0],"parents":[2147483647,0,0,2,2,4,4],"right_children":[2,-1,4,-1,6,-1,-1],"split_conditions":[1E0,-1.253709E-1,1E0,-1.0741064E-1,1E0,-8.955219E-2,1.383859E-1],"split_indices":[0,0,1,0,5,0,0],"split_type":[0,0,0,0,0,0,0],"sum_hessian":[1.2916964E1,4.5707016E0,8.346262E0,2.3253472E0,6.020915E0,1.3976536E0,4.6232615E0],"tree_param":{"num_deleted":"0","num_feature":"6","num_nodes":"7","size_leaf_vector":"1"}},{"base_weights":[2.3093496E-1,2.7069488E-1,1.7033608E-1,1.2357717E-1,1.1341157E-1,3.7087756E-1,-5.4083295E-2,-7.4758874E-3,9.169862E-2,1.2541652E-1,4.6398304E-2,8.7115794E-2,-1.1757425E-1],"categories":[],"categories_nodes":[],"categories_segments":[],"categories_sizes":[],"default_left":[0,0,0,0,0,0,0,0,0,0,0,0,0],"id":48,"left_children":[1,3,5,7,-1,9,11,-1,-1,-1,-1,-1,-1],"loss_changes":[9.541988E-3,1.4672828E-1,5.532794E-1,1.8750839E-1,0E0,4.64499E-4,8.6601907E-1,0E0,0E0,0E0,0E0,0E0,0E0],"parents":[2147483647,0,0,1,1,2,2,3,3,5,5,6,6],"right_children":[2,4,6,8,-1,10,12,-1,-1,-1,-1,-1,-1],"split_conditions":[1E0,1E0,1E0,1E0,1.1341157E-1,1E0,1E0,-7.4758874E-3,9.169862E-2,1.2541652E-1,4.6398304E-2,8.7115794E-2,-1.1757425E-1],"split_indices":[5,1,1,0,0,2,0,0,0,0,0,0,0],"split_type":[0,0,0,0,0,0,0,0,0,0,0,0,0],"sum_hessian":[2.2097387E1,1.1249448E1,1.0847939E1,5.653031E0,5.5964174E0,5.3840947E0,5.4638443E0,3.589118E0,2.0639129E0,3.6534302E0,1.7306643E0,2.7748787E0,2.6889656E0],"tree_param":{"num_deleted":"0","num_feature":"6","num_nodes":"13","size_leaf_vector":"1"}},{"base_weights":[-8.478103E-2,-1.2168107E-1,1.3080147E-1,-9.583047E-2,9.282059E-2],"categories":[],"categories_nodes":[],"categories_segments":[],"categories_sizes":[],"default_left":[0,0,0,0,0],"id":49,"left_children":[1,-1,3,-1,-1],"loss_changes":[8.622936E-1,0E0,7.2236013E-1,0E0,0E0],"parents":[2147483647,0,0,2,2],"right_children":[2,-1,4,-1,-1],"split_conditions":[1E0,-1.2168107E-1,1E0,-9.583047E-2,9.282059E-2],"split_indices":[2,0,3,0,0],"split_type":[0,0,0,0,0],"sum_hessian":[1.0700354E1,3.9462492E0,6.754104E0,1.6943218E0,5.059782E0],"tree_param":{"num_deleted":"0","num_feature":"6","num_nodes":"5","size_leaf_vector":"1"}},{"base_weights":[-2.6940712E-1,-1.4262462E-1,-1.2215465E-1,1.5069454E-2,-1.05911784E-1,4.4104982E-2,-7.9566166E-2],"categories":[],"categories_nodes":[],"categories_segments":[],"categories_sizes":[],"default_left":[0,0,0,0,0,0,0],"id":50,"left_children":[1,3,-1,5,-1,-1,-1],"loss_changes":[1.4218658E-1,2.5449994E-1,0E0,2.3321685E-1,0E0,0E0,0E0],"parents":[2147483647,0,0,1,1,3,3],"right_children":[2,4,-1,6,-1,-1,-1],"split_conditions":[1E0,1E0,-1.2215465E-1,1E0,-1.05911784E-1,4.4104982E-2,-7.9566166E-2],"split_indices":[5,1,0,0,0,0,0],"split_type":[0,0,0,0,0,0,0],"sum_hessian":[1.0464784E1,6.5096827E0,3.955101E0,4.2516727E0,2.25801E0,3.214108E0,1.0375646E0],"tree_param":{"num_deleted":"0","num_feature":"6","num_nodes":"7","size_leaf_vector":"1"}},{"base_weights":[-1.0447695E-1,-1.2025807E-1,7.892651E-2,-1.0131112E-1,2.6268908E-1,-8.339949E-2,1.3322365E-1],"categories":[],"categories_nodes":[],"categories_segments":[],"categories_sizes":[],"default_left":[0,0,0,0,0,0,0],"id":51,"left_children":[1,-1,3,-1,5,-1,-1],"loss_changes":[6.83728E-1,0E0,7.200382E-1,0E0,7.3982155E-1,0E0,0E0],"parents":[2147483647,0,0,2,2,4,4],"right_children":[2,-1,4,-1,6,-1,-1],"split_conditions":[1E0,-1.2025807E-1,1E0,-1.0131112E-1,1E0,-8.339949E-2,1.3322365E-1],"split_indices":[0,0,5,0,1,0,0],"split_type":[0,0,0,0,0,0,0],"sum_hessian":[1.0996262E1,3.7501988E0,7.2460623E0,1.961406E0,5.2846565E0,1.1937419E0,4.0909147E0],"tree_param":{"num_deleted":"0","num_feature":"6","num_nodes":"7","size_leaf_vector":"1"}},{"base_weights":[2.1351935E-1,2.3961933E-1,1.3592678E-1,1.514735E-1,9.6208796E-2,9.453244E-2,-9.3807325E-2,4.7505643E-2,2.617945E-1,-2.0835683E-2,6.176113E-2,9.417715E-2,3.013728E-2],"categories":[],"categories_nodes":[],"categories_segments":[],"categories_sizes":[],"default_left":[0,0,0,0,0,0,0,0,0,0,0,0,0],"id":52,"left_children":[1,3,5,7,-1,-1,-1,9,11,-1,-1,-1,-1],"loss_changes":[7.930219E-3,4.9003363E-2,6.88926E-1,8.43343E-2,0E0,0E0,0E0,1.1737792E-1,1.0268092E-3,0E0,0E0,0E0,0E0],"parents":[2147483647,0,0,1,1,2,2,3,3,7,7,8,8],"right_children":[2,4,6,8,-1,-1,-1,10,12,-1,-1,-1,-1],"split_conditions":[1E0,1E0,1E0,1E0,9.6208796E-2,9.453244E-2,-9.3807325E-2,1E0,1E0,-2.0835683E-2,6.176113E-2,9.417715E-2,3.013728E-2],"split_indices":[2,3,3,4,0,0,0,5,5,0,0,0,0],"split_type":[0,0,0,0,0,0,0,0,0,0,0,0,0],"sum_hessian":[1.8998842E1,1.2654162E1,6.3446803E0,7.436998E0,5.2171645E0,4.746496E0,1.5981841E0,4.5652566E0,2.871741E0,2.9488611E0,1.6163956E0,1.4556446E0,1.4160966E0],"tree_param":{"num_deleted":"0","num_feature":"6","num_nodes":"13","size_leaf_vector":"1"}},{"base_weights":[-7.1397364E-2,-1.15945294E-1,1.2840591E-1,-8.958785E-2,2.9219913E-1,1.0744157E-1,1.4133786E-1,8.082217E-2,-9.817527E-3],"categories":[],"categories_nodes":[],"categories_segments":[],"categories_sizes":[],"default_left":[0,0,0,0,0,0,0,0,0],"id":53,"left_children":[1,-1,3,-1,5,-1,7,-1,-1],"loss_changes":[6.9245213E-1,0E0,5.768111E-1,0E0,4.73246E-3,0E0,8.336716E-2,0E0,0E0],"parents":[2147483647,0,0,2,2,4,4,6,6],"right_children":[2,-1,4,-1,6,-1,8,-1,-1],"split_conditions":[1E0,-1.15945294E-1,1E0,-8.958785E-2,1E0,1.0744157E-1,1E0,8.082217E-2,-9.817527E-3],"split_indices":[2,0,3,0,0,0,1,0,0],"split_type":[0,0,0,0,0,0,0,0,0],"sum_hessian":[9.210805E0,3.2116904E0,5.999114E0,1.4349103E0,4.5642037E0,2.2199395E0,2.3442643E0,1.0349946E0,1.3092698E0],"tree_param":{"num_deleted":"0","num_feature":"6","num_nodes":"9","size_leaf_vector":"1"}},{"base_weights":[-2.4700771E-1,-1.262188E-1,-1.1644039E-1,1.848997E-3,-9.777301E-2],"categories":[],"categories_nodes":[],"categories_segments":[],"categories_sizes":[],"default_left":[0,0,0,0,0],"id":54,"left_children":[1,3,-1,-1,-1],"loss_changes":[1.23818815E-1,1.855829E-1,0E0,0E0,0E0],"parents":[2147483647,0,0,1,1],"right_children":[2,4,-1,-1,-1],"split_conditions":[1E0,1E0,-1.1644039E-1,1.848997E-3,-9.777301E-2],"split_indices":[4,3,0,0,0],"split_type":[0,0,0,0,0],"sum_hessian":[9.1374445E0,5.944219E0,3.1932256E0,4.1573234E0,1.7868956E0],"tree_param":{"num_deleted":"0","num_feature":"6","num_nodes":"5","size_leaf_vector":"1"}},{"base_weights":[-1.0221784E-1,-1.14768E-1,7.475443E-2,-9.474949E-2,7.5374395E-2],"categories":[],"categories_nodes":[],"categories_segments":[],"categories_sizes":[],"default_left":[0,0,0,0,0],"id":55,"left_children":[1,-1,3,-1,-1],"loss_changes":[5.319623E-1,0E0,5.6577295E-1,0E0,0E0],"parents":[2147483647,0,0,2,2],"right_children":[2,-1,4,-1,-1],"split_conditions":[1E0,-1.14768E-1,1E0,-9.474949E-2,7.5374395E-2],"split_indices":[0,0,1,0,0],"split_type":[0,0,0,0,0],"sum_hessian":[9.145856E0,3.0897236E0,6.056132E0,1.6391529E0,4.4169793E0],"tree_param":{"num_deleted":"0","num_feature":"6","num_nodes":"5","size_leaf_vector":"1"}},{"base_weights":[1.9065152E-1,2.2281067E-1,1.3412154E-1,8.018546E-2,1.0185716E-1,1.0004678E-1,-7.970608E-2,-1.5189133E-2,7.952134E-2,7.3671326E-2,-1.086867E-1],"categories":[],"categories_nodes":[],"categories_segments":[],"categories_sizes":[],"default_left":[0,0,0,0,0,0,0,0,0,0,0],"id":56,"left_children":[1,3,5,7,-1,-1,9,-1,-1,-1,-1],"loss_changes":[2.7311444E-3,1.3795319E-1,4.1100192E-1,1.5309201E-1,0E0,0E0,5.630873E-1,0E0,0E0,0E0,0E0],"parents":[2147483647,0,0,1,1,2,2,3,3,6,6],"right_children":[2,4,6,8,-1,-1,10,-1,-1,-1,-1],"split_conditions":[1E0,1E0,1E0,1E0,1.0185716E-1,1.0004678E-1,1E0,-1.5189133E-2,7.952134E-2,7.3671326E-2,-1.086867E-1],"split_indices":[5,1,1,0,0,0,0,0,0,0,0],"split_type":[0,0,0,0,0,0,0,0,0,0,0],"sum_hessian":[1.6940384E1,8.92284E0,8.017543E0,4.774888E0,4.147952E0,3.859459E0,4.1580844E0,3.2215981E0,1.5532898E0,1.9939052E0,2.164179E0],"tree_param":{"num_deleted":"0","num_feature":"6","num_nodes":"11","size_leaf_vector":"1"}},{"base_weights":[-7.092438E-2,-1.1077203E-1,1.1996315E-1,-8.288795E-2,8.162681E-2],"categories":[],"categories_nodes":[],"categories_segments":[],"categories_sizes":[],"default_left":[0,0,0,0,0],"id":57,"left_children":[1,-1,3,-1,-1],"loss_changes":[5.4895854E-1,0E0,4.4644827E-1,0E0,0E0],"parents":[2147483647,0,0,2,2],"right_children":[2,-1,4,-1,-1],"split_conditions":[1E0,-1.1077203E-1,1E0,-8.288795E-2,8.162681E-2],"split_indices":[2,0,3,0,0],"split_type":[0,0,0,0,0],"sum_hessian":[7.8623347E0,2.7033122E0,5.1590223E0,1.2047349E0,3.9542873E0],"tree_param":{"num_deleted":"0","num_feature":"6","num_nodes":"5","size_leaf_vector":"1"}},{"base_weights":[-2.2415192E-1,-1.0152814E-1,-1.1181796E-1,1.1250993E-2,-9.43405E-2],"categories":[],"categories_nodes":[],"categories_segments":[],"categories_sizes":[],"default_left":[0,0,0,0,0],"id":58,"left_children":[1,3,-1,-1,-1],"loss_changes":[1.2905762E-1,2.0106381E-1,0E0,0E0,0E0],"parents":[2147483647,0,0,1,1],"right_children":[2,4,-1,-1,-1],"split_conditions":[1E0,1E0,-1.1181796E-1,1.1250993E-2,-9.43405E-2],"split_indices":[5,1,0,0,0],"split_type":[0,0,0,0,0],"sum_hessian":[8.160868E0,5.393101E0,2.7677662E0,3.7612262E0,1.6318753E0],"tree_param":{"num_deleted":"0","num_feature":"6","num_nodes":"5","size_leaf_vector":"1"}},{"base_weights":[-7.964399E-2,-1.1165195E-1,1.0165034E-1,-9.065448E-2,8.40722E-2],"categories":[],"categories_nodes":[],"categories_segments":[],"categories_sizes":[],"default_left":[0,0,0,0,0],"id":59,"left_children":[1,-1,3,-1,-1],"loss_changes":[5.29508E-1,0E0,5.541294E-1,0E0,0E0],"parents":[2147483647,0,0,2,2],"right_children":[2,-1,4,-1,-1],"split_conditions":[1E0,-1.1165195E-1,1E0,-9.065448E-2,8.40722E-2],"split_indices":[5,0,1,0,0],"split_type":[0,0,0,0,0],"sum_hessian":[8.2709875E0,2.761797E0,5.5091906E0,1.4771016E0,4.0320888E0],"tree_param":{"num_deleted":"0","num_feature":"6","num_nodes":"5","size_leaf_vector":"1"}},{"base_weights":[1.7256278E-1,3.5942953E-2,2.1699178E-1,9.586766E-2,7.7235706E-2,7.407178E-2,-2.6431344E-2],"categories":[],"categories_nodes":[],"categories_segments":[],"categories_sizes":[],"default_left":[0,0,0,0,0,0,0],"id":60,"left_children":[1,-1,3,-1,5,-1,-1],"loss_changes":[1.1493564E-2,0E0,8.211455E-2,0E0,1.4721358E-1,0E0,0E0],"parents":[2147483647,0,0,2,2,4,4],"right_children":[2,-1,4,-1,6,-1,-1],"split_conditions":[1E0,3.5942953E-2,1E0,9.586766E-2,1E0,7.407178E-2,-2.6431344E-2],"split_indices":[4,0,5,0,0,0,0],"split_type":[0,0,0,0,0,0,0],"sum_hessian":[1.4996231E1,8.545894E0,6.450338E0,2.9781356E0,3.4722023E0,1.4701897E0,2.0020127E0],"tree_param":{"num_deleted":"0","num_feature":"6","num_nodes":"7","size_leaf_vector":"1"}},{"base_weights":[-5.644506E-2,-1.0513634E-1,1.21215194E-1,-7.639447E-2,2.5729886E-1,9.6951514E-2,3.382789E-2],"categories":[],"categories_nodes":[],"categories_segments":[],"categories_sizes":[],"default_left":[0,0,0,0,0,0,0],"id":61,"left_children":[1,-1,3,-1,5,-1,-1],"loss_changes":[4.592693E-1,0E0,3.5792878E-1,0E0,8.257538E-3,0E0,0E0],"parents":[2147483647,0,0,2,2,4,4],"right_children":[2,-1,4,-1,6,-1,-1],"split_conditions":[1E0,-1.0513634E-1,1E0,-7.639447E-2,1E0,9.6951514E-2,3.382789E-2],"split_indices":[3,0,2,0,0,0,0],"split_type":[0,0,0,0,0,0,0],"sum_hessian":[6.979297E0,2.2624936E0,4.716804E0,1.0222061E0,3.6945977E0,1.6889802E0,2.0056176E0],"tree_param":{"num_deleted":"0","num_feature":"6","num_nodes":"7","size_leaf_vector":"1"}},{"base_weights":[-2.0247102E-1,-8.598769E-2,-1.0621088E-1,1.2137802E-2,-8.892857E-2],"categories":[],"categories_nodes":[],"categories_segments":[],"categories_sizes":[],"default_left":[0,0,0,0,0],"id":62,"left_children":[1,3,-1,-1,-1],"loss_changes":[1.1673382E-1,1.7256868E-1,0E0,0E0,0E0],"parents":[2147483647,0,0,1,1],"right_children":[2,4,-1,-1,-1],"split_conditions":[1E0,1E0,-1.0621088E-1,1.2137802E-2,-8.892857E-2],"split_indices":[4,2,0,0,0],"split_type":[0,0,0,0,0],"sum_hessian":[7.3363385E0,5.0344863E0,2.3018525E0,3.6494133E0,1.3850728E0],"tree_param":{"num_deleted":"0","num_feature":"6","num_nodes":"5","size_leaf_vector":"1"}},{"base_weights":[-7.608352E-2,-1.05878025E-1,9.30123E-2,-8.4609404E-2,7.723731E-2],"categories":[],"categories_nodes":[],"categories_segments":[],"categories_sizes":[],"default_left":[0,0,0,0,0],"id":63,"left_children":[1,-1,3,-1,-1],"loss_changes":[4.1559148E-1,0E0,4.3448132E-1,0E0,0E0],"parents":[2147483647,0,0,2,2],"right_children":[2,-1,4,-1,-1],"split_conditions":[1E0,-1.05878025E-1,1E0,-8.4609404E-2,7.723731E-2],"split_indices":[5,0,0,0,0],"split_type":[0,0,0,0,0],"sum_hessian":[7.176462E0,2.3090127E0,4.8674493E0,1.2657229E0,3.6017265E0],"tree_param":{"num_deleted":"0","num_feature":"6","num_nodes":"5","size_leaf_vector":"1"}},{"base_weights":[1.5137938E-1,1.008761E-1,1.9752362E-1,5.8564544E-2,1.3552219E-1,8.685534E-2,7.2164014E-2,-1.8497676E-2,6.86572E-2,7.959178E-2,-1.8186586E-2,6.706605E-2,-2.150072E-2],"categories":[],"categories_nodes":[],"categories_segments":[],"categories_sizes":[],"default_left":[0,0,0,0,0,0,0,0,0,0,0,0,0],"id":64,"left_children":[1,3,5,7,9,-1,11,-1,-1,-1,-1,-1,-1],"loss_changes":[1.4552832E-2,5.4141507E-3,5.6227148E-2,1.3410778E-1,1.2417939E-1,0E0,1.0665679E-1,0E0,0E0,0E0,0E0,0E0,0E0],"parents":[2147483647,0,0,1,1,2,2,3,3,4,4,6,6],"right_children":[2,4,6,8,10,-1,12,-1,-1,-1,-1,-1,-1],"split_conditions":[1E0,1E0,1E0,1E0,1E0,8.685534E-2,1E0,-1.8497676E-2,6.86572E-2,7.959178E-2,-1.8186586E-2,6.706605E-2,-2.150072E-2],"split_indices":[4,5,5,1,1,0,0,0,0,0,0,0,0],"split_type":[0,0,0,0,0,0,0,0,0,0,0,0,0],"sum_hessian":[1.3794766E1,8.107496E0,5.6872706E0,4.8611636E0,3.2463326E0,2.5248969E0,3.1623738E0,3.2234166E0,1.6377468E0,1.7414505E0,1.5048821E0,1.2706804E0,1.8916934E0],"tree_param":{"num_deleted":"0","num_feature":"6","num_nodes":"13","size_leaf_vector":"1"}},{"base_weights":[-4.8082575E-2,-1.00288615E-1,1.2120663E-1,5.7058573E-2,3.384971E-2,4.1737936E-2,-2.4131881E-2],"categories":[],"categories_nodes":[],"categories_segments":[],"categories_sizes":[],"default_left":[0,0,0,0,0,0,0],"id":65,"left_children":[1,-1,3,-1,5,-1,-1],"loss_changes":[3.9259577E-1,0E0,2.5501393E-2,0E0,5.39656E-2,0E0,0E0],"parents":[2147483647,0,0,2,2,4,4],"right_children":[2,-1,4,-1,6,-1,-1],"split_conditions":[1E0,-1.00288615E-1,1E0,5.7058573E-2,1E0,4.1737936E-2,-2.4131881E-2],"split_indices":[2,0,1,0,0,0,0],"split_type":[0,0,0,0,0,0,0],"sum_hessian":[6.2664E0,1.9666823E0,4.2997174E0,1.7446727E0,2.555045E0,1.2168418E0,1.3382031E0],"tree_param":{"num_deleted":"0","num_feature":"6","num_nodes":"7","size_leaf_vector":"1"}},{"base_weights":[-1.7879014E-1,-6.129147E-2,-1.0246325E-1,1.9956816E-2,-8.514249E-2],"categories":[],"categories_nodes":[],"categories_segments":[],"categories_sizes":[],"default_left":[0,0,0,0,0],"id":66,"left_children":[1,3,-1,-1,-1],"loss_changes":[1.2756024E-1,1.817937E-1,0E0,0E0,0E0],"parents":[2147483647,0,0,1,1],"right_children":[2,4,-1,-1,-1],"split_conditions":[1E0,1E0,-1.0246325E-1,1.9956816E-2,-8.514249E-2],"split_indices":[0,1,0,0,0],"split_type":[0,0,0,0,0],"sum_hessian":[6.76505E0,4.728178E0,2.0368721E0,3.4484336E0,1.2797444E0],"tree_param":{"num_deleted":"0","num_feature":"6","num_nodes":"5","size_leaf_vector":"1"}},{"base_weights":[-6.6823564E-2,-1.0143749E-1,9.456793E-2,-8.153243E-2,7.6836854E-2],"categories":[],"categories_nodes":[],"categories_segments":[],"categories_sizes":[],"default_left":[0,0,0,0,0],"id":67,"left_children":[1,-1,3,-1,-1],"loss_changes":[3.6085516E-1,0E0,3.945872E-1,0E0,0E0],"parents":[2147483647,0,0,2,2],"right_children":[2,-1,4,-1,-1],"split_conditions":[1E0,-1.0143749E-1,1E0,-8.153243E-2,7.6836854E-2],"split_indices":[1,0,5,0,0],"split_type":[0,0,0,0,0],"sum_hessian":[6.511108E0,2.020149E0,4.490959E0,1.1655985E0,3.3253605E0],"tree_param":{"num_deleted":"0","num_feature":"6","num_nodes":"5","size_leaf_vector":"1"}},{"base_weights":[1.3716237E-1,8.790211E-2,1.8369663E-1,4.450954E-2,1.27036E-1,7.969852E-2,6.796862E-2,-1.7890695E-2,6.0373265E-2,7.3282994E-2,-1.4489564E-2,6.258433E-2,-2.295471E-2],"categories":[],"categories_nodes":[],"categories_segments":[],"categories_sizes":[],"default_left":[0,0,0,0,0,0,0,0,0,0,0,0,0],"id":68,"left_children":[1,3,5,7,9,-1,11,-1,-1,-1,-1,-1,-1],"loss_changes":[1.5464306E-2,8.977711E-3,4.050596E-2,1.0382421E-1,9.3844414E-2,0E0,9.52861E-2,0E0,0E0,0E0,0E0,0E0,0E0],"parents":[2147483647,0,0,1,1,2,2,3,3,4,4,6,6],"right_children":[2,4,6,8,10,-1,12,-1,-1,-1,-1,-1,-1],"split_conditions":[1E0,1E0,1E0,1E0,1E0,7.969852E-2,1E0,-1.7890695E-2,6.0373265E-2,7.3282994E-2,-1.4489564E-2,6.258433E-2,-2.295471E-2],"split_indices":[4,5,0,1,1,0,1,0,0,0,0,0,0],"split_type":[0,0,0,0,0,0,0,0,0,0,0,0,0],"sum_hessian":[1.2790406E1,7.6165986E0,5.1738076E0,4.6253123E0,2.991286E0,2.2702901E0,2.9035175E0,3.1510513E0,1.4742612E0,1.55698E0,1.434306E0,1.2463876E0,1.65713E0],"tree_param":{"num_deleted":"0","num_feature":"6","num_nodes":"13","size_leaf_vector":"1"}},{"base_weights":[-3.570031E-2,-9.705668E-2,1.3114236E-1,5.5690333E-2,4.050294E-2,4.7141425E-2,-2.6184967E-2],"categories":[],"categories_nodes":[],"categories_segments":[],"categories_sizes":[],"default_left":[0,0,0,0,0,0,0],"id":69,"left_children":[1,-1,3,-1,5,-1,-1],"loss_changes":[3.6972123E-1,0E0,1.7306082E-2,0E0,6.090615E-2,0E0,0E0],"parents":[2147483647,0,0,2,2,4,4],"right_children":[2,-1,4,-1,6,-1,-1],"split_conditions":[1E0,-9.705668E-2,1E0,5.5690333E-2,1E0,4.7141425E-2,-2.6184967E-2],"split_indices":[3,0,0,0,5,0,0],"split_type":[0,0,0,0,0,0,0],"sum_hessian":[5.8156404E0,1.7894894E0,4.026151E0,1.8599205E0,2.1662307E0,1.0124419E0,1.1537888E0],"tree_param":{"num_deleted":"0","num_feature":"6","num_nodes":"7","size_leaf_vector":"1"}},{"base_weights":[-1.6529267E-1,-4.7694273E-2,-9.874031E-2,1.944957E-2,-7.8622356E-2],"categories":[],"categories_nodes":[],"categories_segments":[],"categories_sizes":[],"default_left":[0,0,0,0,0],"id":70,"left_children":[1,3,-1,-1,-1],"loss_changes":[1.2435514E-1,1.4728288E-1,0E0,0E0,0E0],"parents":[2147483647,0,0,1,1],"right_children":[2,4,-1,-1,-1],"split_conditions":[1E0,1E0,-9.874031E-2,1.944957E-2,-7.8622356E-2],"split_indices":[3,2,0,0,0],"split_type":[0,0,0,0,0],"sum_hessian":[6.2688646E0,4.401069E0,1.8677953E0,3.3436193E0,1.0574499E0],"tree_param":{"num_deleted":"0","num_feature":"6","num_nodes":"5","size_leaf_vector":"1"}},{"base_weights":[-6.482544E-2,-9.763315E-2,9.313962E-2,-7.623757E-2,7.2687745E-2],"categories":[],"categories_nodes":[],"categories_segments":[],"categories_sizes":[],"default_left":[0,0,0,0,0],"id":71,"left_children":[1,-1,3,-1,-1],"loss_changes":[3.1400484E-1,0E0,3.240707E-1,0E0,0E0],"parents":[2147483647,0,0,2,2],"right_children":[2,-1,4,-1,-1],"split_conditions":[1E0,-9.763315E-2,1E0,-7.623757E-2,7.2687745E-2],"split_indices":[0,0,1,0,0],"split_type":[0,0,0,0,0],"sum_hessian":[5.8910065E0,1.8230399E0,4.0679665E0,1.010795E0,3.0571716E0],"tree_param":{"num_deleted":"0","num_feature":"6","num_nodes":"5","size_leaf_vector":"1"}},{"base_weights":[1.2522085E-1,1.5201198E-1,5.319101E-2,5.3953774E-2,7.855709E-2,7.644345E-2,-8.705413E-2,-3.8134653E-2,5.793042E-2,-4.4767465E-2,4.912183E-2],"categories":[],"categories_nodes":[],"categories_segments":[],"categories_sizes":[],"default_left":[0,0,0,0,0,0,0,0,0,0,0],"id":72,"left_children":[1,3,5,7,-1,-1,-1,9,-1,-1,-1],"loss_changes":[1.6914308E-2,8.178419E-2,4.2358738E-1,8.378828E-2,0E0,0E0,0E0,1.23649195E-1,0E0,0E0,0E0],"parents":[2147483647,0,0,1,1,2,2,3,3,7,7],"right_children":[2,4,6,8,-1,-1,-1,10,-1,-1,-1],"split_conditions":[1E0,1E0,1E0,1E0,7.855709E-2,7.644345E-2,-8.705413E-2,1E0,5.793042E-2,-4.4767465E-2,4.912183E-2],"split_indices":[2,3,3,4,0,0,0,0,0,0,0],"split_type":[0,0,0,0,0,0,0,0,0,0,0],"sum_hessian":[1.19549675E1,7.9045205E0,4.050447E0,4.964189E0,2.9403315E0,2.7144763E0,1.3359704E0,3.4240685E0,1.5401205E0,2.376884E0,1.0471843E0],"tree_param":{"num_deleted":"0","num_feature":"6","num_nodes":"11","size_leaf_vector":"1"}},{"base_weights":[-2.6672108E-2,-9.251061E-2,1.2985545E-1,5.3991266E-2,5.078517E-2,4.1008204E-2,-1.5807347E-2],"categories":[],"categories_nodes":[],"categories_segments":[],"categories_sizes":[],"default_left":[0,0,0,0,0,0,0],"id":73,"left_children":[1,-1,3,-1,5,-1,-1],"loss_changes":[3.2204682E-1,0E0,9.939723E-3,0E0,3.6191005E-2,0E0,0E0],"parents":[2147483647,0,0,2,2,4,4],"right_children":[2,-1,4,-1,6,-1,-1],"split_conditions":[1E0,-9.251061E-2,1E0,5.3991266E-2,1E0,4.1008204E-2,-1.5807347E-2],"split_indices":[2,0,1,0,5,0,0],"split_type":[0,0,0,0,0,0,0],"sum_hessian":[5.395611E0,1.5807452E0,3.8148658E0,1.5539021E0,2.2609637E0,1.0599484E0,1.2010151E0],"tree_param":{"num_deleted":"0","num_feature":"6","num_nodes":"7","size_leaf_vector":"1"}},{"base_weights":[-1.5333968E-1,-3.929226E-2,-9.492045E-2,2.2917079E-2,-7.7471256E-2],"categories":[],"categories_nodes":[],"categories_segments":[],"categories_sizes":[],"default_left":[0,0,0,0,0],"id":74,"left_children":[1,3,-1,-1,-1],"loss_changes":[1.149216E-1,1.5071166E-1,0E0,0E0,0E0],"parents":[2147483647,0,0,1,1],"right_children":[2,4,-1,-1,-1],"split_conditions":[1E0,1E0,-9.492045E-2,2.2917079E-2,-7.7471256E-2],"split_indices":[5,0,0,0,0],"split_type":[0,0,0,0,0],"sum_hessian":[5.8481584E0,4.171515E0,1.6766434E0,3.1554115E0,1.0161033E0],"tree_param":{"num_deleted":"0","num_feature":"6","num_nodes":"5","size_leaf_vector":"1"}},{"base_weights":[-6.306138E-2,-9.36465E-2,8.806635E-2,1.1137905E-2,3.1412236E-2],"categories":[],"categories_nodes":[],"categories_segments":[],"categories_sizes":[],"default_left":[0,0,0,0,0],"id":75,"left_children":[1,-1,3,-1,-1],"loss_changes":[2.6720145E-1,0E0,1.3334304E-4,0E0,0E0],"parents":[2147483647,0,0,2,2],"right_children":[2,-1,4,-1,-1],"split_conditions":[1E0,-9.36465E-2,1E0,1.1137905E-2,3.1412236E-2],"split_indices":[5,0,4,0,0],"split_type":[0,0,0,0,0],"sum_hessian":[5.367682E0,1.6245469E0,3.7431352E0,1.7173047E0,2.0258305E0],"tree_param":{"num_deleted":"0","num_feature":"6","num_nodes":"5","size_leaf_vector":"1"}},{"base_weights":[1.1147715E-1,6.753368E-2,1.538477E-1,3.0456936E-2,1.0154068E-1,7.304578E-2,3.6576815E-2,-2.0369034E-2,5.5276353E-2,6.523152E-2,-1.7097602E-2,5.030184E-2,-2.576404E-2],"categories":[],"categories_nodes":[],"categories_segments":[],"categories_sizes":[],"default_left":[0,0,0,0,0,0,0,0,0,0,0,0,0],"id":76,"left_children":[1,3,5,7,9,-1,11,-1,-1,-1,-1,-1,-1],"loss_changes":[1.2180269E-2,6.6576786E-3,4.7743678E-2,9.0079136E-2,7.862911E-2,0E0,7.077131E-2,0E0,0E0,0E0,0E0,0E0,0E0],"parents":[2147483647,0,0,1,1,2,2,3,3,4,4,6,6],"right_children":[2,4,6,8,10,-1,12,-1,-1,-1,-1,-1,-1],"split_conditions":[1E0,1E0,1E0,1E0,1E0,7.304578E-2,1E0,-2.0369034E-2,5.5276353E-2,6.523152E-2,-1.7097602E-2,5.030184E-2,-2.576404E-2],"split_indices":[4,5,5,1,1,0,1,0,0,0,0,0,0],"split_type":[0,0,0,0,0,0,0,0,0,0,0,0,0],"sum_hessian":[1.1122062E1,6.732997E0,4.389065E0,4.12799E0,2.6050074E0,1.8776089E0,2.511456E0,2.8585043E0,1.2694854E0,1.2902111E0,1.3147963E0,1.034614E0,1.4768419E0],"tree_param":{"num_deleted":"0","num_feature":"6","num_nodes":"13","size_leaf_vector":"1"}},{"base_weights":[-2.8106442E-2,-8.9194536E-2,1.2505746E-1,5.206007E-2,1.1445236E-2],"categories":[],"categories_nodes":[],"categories_segments":[],"categories_sizes":[],"default_left":[0,0,0,0,0],"id":77,"left_children":[1,-1,3,-1,-1],"loss_changes":[2.8117722E-1,0E0,1.2234613E-2,0E0,0E0],"parents":[2147483647,0,0,2,2],"right_children":[2,-1,4,-1,-1],"split_conditions":[1E0,-8.9194536E-2,1E0,5.206007E-2,1.1445236E-2],"split_indices":[3,0,0,0,0],"split_type":[0,0,0,0,0],"sum_hessian":[4.9174805E0,1.4419242E0,3.4755561E0,1.5912075E0,1.8843485E0],"tree_param":{"num_deleted":"0","num_feature":"6","num_nodes":"5","size_leaf_vector":"1"}},{"base_weights":[-1.4380355E-1,-1.0668287E-2,-9.028592E-2],"categories":[],"categories_nodes":[],"categories_segments":[],"categories_sizes":[],"default_left":[0,0,0],"id":78,"left_children":[1,-1,-1],"loss_changes":[9.835586E-2,0E0,0E0],"parents":[2147483647,0,0],"right_children":[2,-1,-1],"split_conditions":[1E0,-1.0668287E-2,-9.028592E-2],"split_indices":[1,0,0],"split_type":[0,0,0],"sum_hessian":[5.411303E0,3.9303885E0,1.4809145E0],"tree_param":{"num_deleted":"0","num_feature":"6","num_nodes":"3","size_leaf_vector":"1"}},{"base_weights":[-4.2962924E-2,-9.00716E-2,3.1075826E-2],"categories":[],"categories_nodes":[],"categories_segments":[],"categories_sizes":[],"default_left":[0,0,0],"id":79,"left_children":[1,-1,-1],"loss_changes":[2.61945E-1,0E0,0E0],"parents":[2147483647,0,0],"right_children":[2,-1,-1],"split_conditions":[1E0,-9.00716E-2,3.1075826E-2],"split_indices":[0,0,0],"split_type":[0,0,0],"sum_hessian":[5.122626E0,1.4784286E0,3.6441972E0],"tree_param":{"num_deleted":"0","num_feature":"6","num_nodes":"3","size_leaf_vector":"1"}},{"base_weights":[9.92598E-2,1.22949116E-1,3.5943184E-2,2.8382944E-2,2.3374754E-1,2.2775793E-1,-8.2703136E-2,-1.653466E-2,4.95755E-2,8.4987916E-2,2.535546E-2,8.4239446E-2,2.0805331E-2],"categories":[],"categories_nodes":[],"categories_segments":[],"categories_sizes":[],"default_left":[0,0,0,0,0,0,0,0,0,0,0,0,0],"id":80,"left_children":[1,3,5,7,9,11,-1,-1,-1,-1,-1,-1,-1],"loss_changes":[1.296775E-2,7.742467E-2,3.3590746E-1,7.158166E-2,2.3486465E-3,8.890495E-3,0E0,0E0,0E0,0E0,0E0,0E0,0E0],"parents":[2147483647,0,0,1,1,2,2,3,3,4,4,5,5],"right_children":[2,4,6,8,10,12,-1,-1,-1,-1,-1,-1,-1],"split_conditions":[1E0,1E0,1E0,1E0,1E0,1E0,-8.2703136E-2,-1.653466E-2,4.95755E-2,8.4987916E-2,2.535546E-2,8.4239446E-2,2.0805331E-2],"split_indices":[2,3,3,4,0,0,0,0,0,0,0,0,0],"split_type":[0,0,0,0,0,0,0,0,0,0,0,0,0],"sum_hessian":[1.059186E1,7.022604E0,3.5692554E0,4.4665675E0,2.5560365E0,2.375907E0,1.1933484E0,3.145144E0,1.3214236E0,1.2444834E0,1.311553E0,1.2010977E0,1.1748092E0],"tree_param":{"num_deleted":"0","num_feature":"6","num_nodes":"13","size_leaf_vector":"1"}},{"base_weights":[-1.991291E-2,-8.522633E-2,1.23201974E-1,5.1764205E-2,1.3016771E-2],"categories":[],"categories_nodes":[],"categories_segments":[],"categories_sizes":[],"default_left":[0,0,0,0,0],"id":81,"left_children":[1,-1,3,-1,-1],"loss_changes":[2.4977401E-1,0E0,9.771846E-3,0E0,0E0],"parents":[2147483647,0,0,2,2],"right_children":[2,-1,4,-1,-1],"split_conditions":[1E0,-8.522633E-2,1E0,5.1764205E-2,1.3016771E-2],"split_indices":[2,0,1,0,0],"split_type":[0,0,0,0,0],"sum_hessian":[4.6807423E0,1.2986113E0,3.382131E0,1.3719814E0,2.0101497E0],"tree_param":{"num_deleted":"0","num_feature":"6","num_nodes":"5","size_leaf_vector":"1"}},{"base_weights":[-1.3129942E-1,-7.1460106E-3,-8.7567836E-2],"categories":[],"categories_nodes":[],"categories_segments":[],"categories_sizes":[],"default_left":[0,0,0],"id":82,"left_children":[1,-1,-1],"loss_changes":[9.902533E-2,0E0,0E0],"parents":[2147483647,0,0],"right_children":[2,-1,-1],"split_conditions":[1E0,-7.1460106E-3,-8.7567836E-2],"split_indices":[3,0,0],"split_type":[0,0,0],"sum_hessian":[5.1399364E0,3.7670856E0,1.3728507E0],"tree_param":{"num_deleted":"0","num_feature":"6","num_nodes":"3","size_leaf_vector":"1"}},{"base_weights":[-3.9543666E-2,-8.736918E-2,3.0696066E-2],"categories":[],"categories_nodes":[],"categories_segments":[],"categories_sizes":[],"default_left":[0,0,0],"id":83,"left_children":[1,-1,-1],"loss_changes":[2.3866132E-1,0E0,0E0],"parents":[2147483647,0,0],"right_children":[2,-1,-1],"split_conditions":[1E0,-8.736918E-2,3.0696066E-2],"split_indices":[1,0,0],"split_type":[0,0,0],"sum_hessian":[4.8496256E0,1.368616E0,3.4810095E0],"tree_param":{"num_deleted":"0","num_feature":"6","num_nodes":"3","size_leaf_vector":"1"}},{"base_weights":[9.052568E-2,4.93981E-2,1.3254566E-1,1.1910423E-2,8.941886E-2,6.635391E-2,6.1896606E-3,-2.5218751E-2,5.2405562E-2,6.00478E-2,-1.7591422E-2],"categories":[],"categories_nodes":[],"categories_segments":[],"categories_sizes":[],"default_left":[0,0,0,0,0,0,0,0,0,0,0],"id":84,"left_children":[1,3,5,7,9,-1,-1,-1,-1,-1,-1],"loss_changes":[1.2492552E-2,9.679915E-3,4.359968E-2,9.047696E-2,6.601173E-2,0E0,0E0,0E0,0E0,0E0,0E0],"parents":[2147483647,0,0,1,1,2,2,3,3,4,4],"right_children":[2,4,6,8,10,-1,-1,-1,-1,-1,-1],"split_conditions":[1E0,1E0,1E0,1E0,1E0,6.635391E-2,6.1896606E-3,-2.5218751E-2,5.2405562E-2,6.00478E-2,-1.7591422E-2],"split_indices":[4,5,5,0,1,0,0,0,0,0,0],"split_type":[0,0,0,0,0,0,0,0,0,0,0],"sum_hessian":[1.00174E1,6.1619253E0,3.8554747E0,3.8516598E0,2.3102653E0,1.6066682E0,2.2488065E0,2.7272332E0,1.1244266E0,1.1203684E0,1.1898971E0],"tree_param":{"num_deleted":"0","num_feature":"6","num_nodes":"11","size_leaf_vector":"1"}},{"base_weights":[-2.5001E-2,-8.246928E-2,1.1519539E-1,5.0523914E-2,9.158229E-3],"categories":[],"categories_nodes":[],"categories_segments":[],"categories_sizes":[],"default_left":[0,0,0,0,0],"id":85,"left_children":[1,-1,3,-1,-1],"loss_changes":[2.1784559E-1,0E0,1.3373122E-2,0E0,0E0],"parents":[2147483647,0,0,2,2],"right_children":[2,-1,4,-1,-1],"split_conditions":[1E0,-8.246928E-2,1E0,5.0523914E-2,9.158229E-3],"split_indices":[3,0,5,0,0],"split_type":[0,0,0,0,0],"sum_hessian":[4.3141375E0,1.2051624E0,3.1089752E0,1.3016987E0,1.8072765E0],"tree_param":{"num_deleted":"0","num_feature":"6","num_nodes":"5","size_leaf_vector":"1"}},{"base_weights":[-1.1787602E-1,-3.0336676E-3,-8.53746E-2],"categories":[],"categories_nodes":[],"categories_segments":[],"categories_sizes":[],"default_left":[0,0,0],"id":86,"left_children":[1,-1,-1],"loss_changes":[1.0269198E-1,0E0,0E0],"parents":[2147483647,0,0],"right_children":[2,-1,-1],"split_conditions":[1E0,-3.0336676E-3,-8.53746E-2],"split_indices":[0,0,0],"split_type":[0,0,0],"sum_hessian":[4.876456E0,3.6060529E0,1.270403E0],"tree_param":{"num_deleted":"0","num_feature":"6","num_nodes":"3","size_leaf_vector":"1"}},{"base_weights":[-3.0372726E-2,-8.479285E-2,3.237131E-2],"categories":[],"categories_nodes":[],"categories_segments":[],"categories_sizes":[],"default_left":[0,0,0],"id":87,"left_children":[1,-1,-1],"loss_changes":[2.2781752E-1,0E0,0E0],"parents":[2147483647,0,0],"right_children":[2,-1,-1],"split_conditions":[1E0,-8.479285E-2,3.237131E-2],"split_indices":[5,0,0],"split_type":[0,0,0],"sum_hessian":[4.65657E0,1.2790544E0,3.3775153E0],"tree_param":{"num_deleted":"0","num_feature":"6","num_nodes":"3","size_leaf_vector":"1"}},{"base_weights":[8.128808E-2,4.2831726E-2,1.21170044E-1,4.6202186E-3,8.55466E-2,6.2566794E-2,4.2544357E-3,-2.532913E-2,4.7999077E-2,5.597947E-2,-1.4895032E-2],"categories":[],"categories_nodes":[],"categories_segments":[],"categories_sizes":[],"default_left":[0,0,0,0,0,0,0,0,0,0,0],"id":88,"left_children":[1,3,5,7,9,-1,-1,-1,-1,-1,-1],"loss_changes":[1.1113487E-2,1.0962394E-2,4.0717915E-2,7.895401E-2,5.337242E-2,0E0,0E0,0E0,0E0,0E0,0E0],"parents":[2147483647,0,0,1,1,2,2,3,3,4,4],"right_children":[2,4,6,8,10,-1,-1,-1,-1,-1,-1],"split_conditions":[1E0,1E0,1E0,1E0,1E0,6.2566794E-2,4.2544357E-3,-2.532913E-2,4.7999077E-2,5.597947E-2,-1.4895032E-2],"split_indices":[4,5,0,1,1,0,0,0,0,0,0],"split_type":[0,0,0,0,0,0,0,0,0,0,0],"sum_hessian":[9.630016E0,5.958485E0,3.6715317E0,3.7299461E0,2.228539E0,1.4983683E0,2.1731637E0,2.6612937E0,1.0686523E0,1.0577413E0,1.1707977E0],"tree_param":{"num_deleted":"0","num_feature":"6","num_nodes":"11","size_leaf_vector":"1"}},{"base_weights":[-1.8368976E-2,-7.892692E-2,1.1350069E-1,4.707311E-2,9.94606E-3],"categories":[],"categories_nodes":[],"categories_segments":[],"categories_sizes":[],"default_left":[0,0,0,0,0],"id":89,"left_children":[1,-1,3,-1,-1],"loss_changes":[1.9554618E-1,0E0,8.8711195E-3,0E0,0E0],"parents":[2147483647,0,0,2,2],"right_children":[2,-1,4,-1,-1],"split_conditions":[1E0,-7.892692E-2,1E0,4.707311E-2,9.94606E-3],"split_indices":[2,0,0,0,0],"split_type":[0,0,0,0,0],"sum_hessian":[4.134147E0,1.099201E0,3.034946E0,1.3517324E0,1.6832137E0],"tree_param":{"num_deleted":"0","num_feature":"6","num_nodes":"5","size_leaf_vector":"1"}},{"base_weights":[-1.0963535E-1,-9.634787E-4,-8.2645245E-2],"categories":[],"categories_nodes":[],"categories_segments":[],"categories_sizes":[],"default_left":[0,0,0],"id":90,"left_children":[1,-1,-1],"loss_changes":[9.917972E-2,0E0,0E0],"parents":[2147483647,0,0],"right_children":[2,-1,-1],"split_conditions":[1E0,-9.634787E-4,-8.2645245E-2],"split_indices":[5,0,0],"split_type":[0,0,0],"sum_hessian":[4.669295E0,3.4651208E0,1.204174E0],"tree_param":{"num_deleted":"0","num_feature":"6","num_nodes":"3","size_leaf_vector":"1"}},{"base_weights":[-2.7153498E-2,-8.281896E-2,3.2797754E-2],"categories":[],"categories_nodes":[],"categories_segments":[],"categories_sizes":[],"default_left":[0,0,0],"id":91,"left_children":[1,-1,-1],"loss_changes":[2.1562567E-1,0E0,0E0],"parents":[2147483647,0,0],"right_children":[2,-1,-1],"split_conditions":[1E0,-8.281896E-2,3.2797754E-2],"split_indices":[0,0,0],"split_type":[0,0,0],"sum_hessian":[4.458911E0,1.2168621E0,3.2420487E0],"tree_param":{"num_deleted":"0","num_feature":"6","num_nodes":"3","size_leaf_vector":"1"}},{"base_weights":[7.365338E-2,3.7249736E-2,1.11896925E-1,4.416558E-3,2.248369E-2,5.8763765E-2,3.0509643E-3,-2.3865243E-2,4.6178784E-2],"categories":[],"categories_nodes":[],"categories_segments":[],"categories_sizes":[],"default_left":[0,0,0,0,0,0,0,0,0],"id":92,"left_children":[1,3,5,7,-1,-1,-1,-1,-1],"loss_changes":[1.014635E-2,8.043938E-3,3.6582645E-2,7.098902E-2,0E0,0E0,0E0,0E0,0E0],"parents":[2147483647,0,0,1,1,2,2,3,3],"right_children":[2,4,6,8,-1,-1,-1,-1,-1],"split_conditions":[1E0,1E0,1E0,1E0,2.248369E-2,5.8763765E-2,3.0509643E-3,-2.3865243E-2,4.6178784E-2],"split_indices":[4,5,5,0,0,0,0,0,0],"split_type":[0,0,0,0,0,0,0,0,0],"sum_hessian":[9.281881E0,5.766665E0,3.5152166E0,3.6792207E0,2.087444E0,1.4185631E0,2.0966535E0,2.6556964E0,1.0235244E0],"tree_param":{"num_deleted":"0","num_feature":"6","num_nodes":"9","size_leaf_vector":"1"}},{"base_weights":[-1.2604759E-2,-7.669628E-2,1.1624671E-1,4.938901E-2,1.0130515E-2],"categories":[],"categories_nodes":[],"categories_segments":[],"categories_sizes":[],"default_left":[0,0,0,0,0],"id":93,"left_children":[1,-1,3,-1,-1],"loss_changes":[1.8541536E-1,0E0,1.0149676E-2,0E0,0E0],"parents":[2147483647,0,0,2,2],"right_children":[2,-1,4,-1,-1],"split_conditions":[1E0,-7.669628E-2,1E0,4.938901E-2,1.0130515E-2],"split_indices":[3,0,5,0,0],"split_type":[0,0,0,0,0],"sum_hessian":[3.9715803E0,1.0350636E0,2.9365165E0,1.2230266E0,1.71349E0],"tree_param":{"num_deleted":"0","num_feature":"6","num_nodes":"5","size_leaf_vector":"1"}},{"base_weights":[-1.0290771E-1,-4.6240697E-5,-8.00605E-2],"categories":[],"categories_nodes":[],"categories_segments":[],"categories_sizes":[],"default_left":[0,0,0],"id":94,"left_children":[1,-1,-1],"loss_changes":[9.233245E-2,0E0,0E0],"parents":[2147483647,0,0],"right_children":[2,-1,-1],"split_conditions":[1E0,-4.6240697E-5,-8.00605E-2],"split_indices":[2,0,0],"split_type":[0,0,0],"sum_hessian":[4.4829135E0,3.3711593E0,1.1117541E0],"tree_param":{"num_deleted":"0","num_feature":"6","num_nodes":"3","size_leaf_vector":"1"}},{"base_weights":[-2.4712881E-2,-8.037442E-2,3.203751E-2],"categories":[],"categories_nodes":[],"categories_segments":[],"categories_sizes":[],"default_left":[0,0,0],"id":95,"left_children":[1,-1,-1],"loss_changes":[1.9736208E-1,0E0,0E0],"parents":[2147483647,0,0],"right_children":[2,-1,-1],"split_conditions":[1E0,-8.037442E-2,3.203751E-2],"split_indices":[1,0,0],"split_type":[0,0,0],"sum_hessian":[4.276411E0,1.1367767E0,3.1396344E0],"tree_param":{"num_deleted":"0","num_feature":"6","num_nodes":"3","size_leaf_vector":"1"}},{"base_weights":[6.6531E-2,8.737167E-2,1.4054436E-2,-5.2586407E-3,6.1519157E-2,6.0400292E-2,-7.842473E-2,-2.266119E-2,3.8319655E-2],"categories":[],"categories_nodes":[],"categories_segments":[],"categories_sizes":[],"default_left":[0,0,0,0,0,0,0,0,0],"id":96,"left_children":[1,3,5,7,-1,-1,-1,-1,-1],"loss_changes":[9.711843E-3,7.704208E-2,2.6080254E-1,5.520415E-2,0E0,0E0,0E0,0E0,0E0],"parents":[2147483647,0,0,1,1,2,2,3,3],"right_children":[2,4,6,8,-1,-1,-1,-1,-1],"split_conditions":[1E0,1E0,1E0,1E0,6.1519157E-2,6.0400292E-2,-7.842473E-2,-2.266119E-2,3.8319655E-2],"split_indices":[2,3,3,4,0,0,0,0,0],"split_type":[0,0,0,0,0,0,0,0,0],"sum_hessian":[9.003052E0,5.967958E0,3.035094E0,3.8741248E0,2.0938334E0,1.9669663E0,1.0681276E0,2.8173268E0,1.0567981E0],"tree_param":{"num_deleted":"0","num_feature":"6","num_nodes":"9","size_leaf_vector":"1"}},{"base_weights":[-9.256197E-3,9.686401E-3,-4.2300433E-2,1.5437155E-2,-3.3771493E-2],"categories":[],"categories_nodes":[],"categories_segments":[],"categories_sizes":[],"default_left":[0,0,0,0,0],"id":97,"left_children":[1,-1,3,-1,-1],"loss_changes":[7.973413E-3,0E0,2.630753E-2,0E0,0E0],"parents":[2147483647,0,0,2,2],"right_children":[2,-1,4,-1,-1],"split_conditions":[1E0,9.686401E-3,1E0,1.5437155E-2,-3.3771493E-2],"split_indices":[5,0,0,0,0],"split_type":[0,0,0,0,0],"sum_hessian":[3.8132534E0,1.6994896E0,2.1137638E0,1.0202522E0,1.0935116E0],"tree_param":{"num_deleted":"0","num_feature":"6","num_nodes":"5","size_leaf_vector":"1"}},{"base_weights":[-9.713569E-2,5.375492E-4,-7.7074945E-2],"categories":[],"categories_nodes":[],"categories_segments":[],"categories_sizes":[],"default_left":[0,0,0],"id":98,"left_children":[1,-1,-1],"loss_changes":[8.456927E-2,0E0,0E0],"parents":[2147483647,0,0],"right_children":[2,-1,-1],"split_conditions":[1E0,5.375492E-4,-7.7074945E-2],"split_indices":[1,0,0],"split_type":[0,0,0],"sum_hessian":[4.321087E0,3.2794292E0,1.0416578E0],"tree_param":{"num_deleted":"0","num_feature":"6","num_nodes":"3","size_leaf_vector":"1"}},{"base_weights":[-2.0285323E-2,-7.771522E-2,3.1743895E-2],"categories":[],"categories_nodes":[],"categories_segments":[],"categories_sizes":[],"default_left":[0,0,0],"id":99,"left_children":[1,-1,-1],"loss_changes":[1.8190989E-1,0E0,0E0],"parents":[2147483647,0,0],"right_children":[2,-1,-1],"split_conditions":[1E0,-7.771522E-2,3.1743895E-2],"split_indices":[0,0,0],"split_type":[0,0,0],"sum_hessian":[4.131507E0,1.0634753E0,3.0680315E0],"tree_param":{"num_deleted":"0","num_feature":"6","num_nodes":"3","size_leaf_vector":"1"}},{"base_weights":[6.0028166E-2,7.969381E-2,9.787511E-3,-5.533663E-3,5.700932E-2,2.686726E-2,-2.161659E-2,-2.1201046E-2,3.583075E-2],"categories":[],"categories_nodes":[],"categories_segments":[],"categories_sizes":[],"default_left":[0,0,0,0,0,0,0,0,0],"id":100,"left_children":[1,3,5,7,-1,-1,-1,-1,-1],"loss_changes":[8.756183E-3,6.496568E-2,3.162228E-2,4.7564693E-2,0E0,0E0,0E0,0E0,0E0],"parents":[2147483647,0,0,1,1,2,2,3,3],"right_children":[2,4,6,8,-1,-1,-1,-1,-1],"split_conditions":[1E0,1E0,1E0,1E0,5.700932E-2,2.686726E-2,-2.161659E-2,-2.1201046E-2,3.583075E-2],"split_indices":[2,3,0,4,0,0,0,0,0],"split_type":[0,0,0,0,0,0,0,0,0],"sum_hessian":[8.651869E0,5.796651E0,2.8552182E0,3.8063622E0,1.9902889E0,1.3981832E0,1.457035E0,2.7878053E0,1.0185567E0],"tree_param":{"num_deleted":"0","num_feature":"6","num_nodes":"9","size_leaf_vector":"1"}},{"base_weights":[-1.1353035E-2,8.257275E-3,-1.2458075E-2],"categories":[],"categories_nodes":[],"categories_segments":[],"categories_sizes":[],"default_left":[0,0,0],"id":101,"left_children":[1,-1,-1],"loss_changes":[6.575494E-3,0E0,0E0],"parents":[2147483647,0,0],"right_children":[2,-1,-1],"split_conditions":[1E0,8.257275E-3,-1.2458075E-2],"split_indices":[5,0,0],"split_type":[0,0,0],"sum_hessian":[3.6309757E0,1.6250304E0,2.0059452E0],"tree_param":{"num_deleted":"0","num_feature":"6","num_nodes":"3","size_leaf_vector":"1"}},{"base_weights":[-8.9247614E-2],"categories":[],"categories_nodes":[],"categories_segments":[],"categories_sizes":[],"default_left":[0],"id":102,"left_children":[-1],"loss_changes":[0E0],"parents":[2147483647],"right_children":[-1],"split_conditions":[-2.6774285E-2],"split_indices":[0],"split_type":[0],"sum_hessian":[4.1507416E0],"tree_param":{"num_deleted":"0","num_feature":"6","num_nodes":"1","size_leaf_vector":"1"}},{"base_weights":[-1.3415523E-2,-7.611118E-2,3.3468787E-2],"categories":[],"categories_nodes":[],"categories_segments":[],"categories_sizes":[],"default_left":[0,0,0],"id":103,"left_children":[1,-1,-1],"loss_changes":[1.7854391E-1,0E0,0E0],"parents":[2147483647,0,0],"right_children":[2,-1,-1],"split_conditions":[1E0,-7.611118E-2,3.3468787E-2],"split_indices":[5,0,0],"split_type":[0,0,0],"sum_hessian":[4.002866E0,1.0171885E0,2.9856772E0],"tree_param":{"num_deleted":"0","num_feature":"6","num_nodes":"3","size_leaf_vector":"1"}},{"base_weights":[5.195504E-2,7.349656E-2,2.0447106E-3,-9.4230315E-3,5.632942E-2,2.5936762E-2,-2.214855E-2,-2.4475452E-2,3.0453058E-2],"categories":[],"categories_nodes":[],"categories_segments":[],"categories_sizes":[],"default_left":[0,0,0,0,0,0,0,0,0],"id":104,"left_children":[1,3,5,7,-1,-1,-1,-1,-1],"loss_changes":[1.0029294E-2,6.4162776E-2,3.1252317E-2,4.645145E-2,0E0,0E0,0E0,0E0,0E0],"parents":[2147483647,0,0,1,1,2,2,3,3],"right_children":[2,4,6,8,-1,-1,-1,-1,-1],"split_conditions":[1E0,1E0,1E0,1E0,5.632942E-2,2.5936762E-2,-2.214855E-2,-2.4475452E-2,3.0453058E-2],"split_indices":[3,2,1,0,0,0,0,0,0],"split_type":[0,0,0,0,0,0,0,0,0],"sum_hessian":[8.468101E0,5.5850124E0,2.883088E0,3.7681563E0,1.816856E0,1.2987323E0,1.5843558E0,2.443333E0,1.3248234E0],"tree_param":{"num_deleted":"0","num_feature":"6","num_nodes":"9","size_leaf_vector":"1"}},{"base_weights":[-6.65576E-3,8.243483E-3,-1.004796E-2],"categories":[],"categories_nodes":[],"categories_segments":[],"categories_sizes":[],"default_left":[0,0,0],"id":105,"left_children":[1,-1,-1],"loss_changes":[5.110757E-3,0E0,0E0],"parents":[2147483647,0,0],"right_children":[2,-1,-1],"split_conditions":[1E0,8.243483E-3,-1.004796E-2],"split_indices":[1,0,0],"split_type":[0,0,0],"sum_hessian":[3.574346E0,1.5627875E0,2.0115583E0],"tree_param":{"num_deleted":"0","num_feature":"6","num_nodes":"3","size_leaf_vector":"1"}},{"base_weights":[-7.955269E-2],"categories":[],"categories_nodes":[],"categories_segments":[],"categories_sizes":[],"default_left":[0],"id":106,"left_children":[-1],"loss_changes":[0E0],"parents":[2147483647],"right_children":[-1],"split_conditions":[-2.3865808E-2],"split_indices":[0],"split_type":[0],"sum_hessian":[4.0488787E0],"tree_param":{"num_deleted":"0","num_feature":"6","num_nodes":"1","size_leaf_vector":"1"}},{"base_weights":[-1.2216705E-2,-1.7628223E-2,1.0962376E-2],"categories":[],"categories_nodes":[],"categories_segments":[],"categories_sizes":[],"default_left":[0,0,0],"id":107,"left_children":[1,-1,-1],"loss_changes":[1.3258885E-2,0E0,0E0],"parents":[2147483647,0,0],"right_children":[2,-1,-1],"split_conditions":[1E0,-1.7628223E-2,1.0962376E-2],"split_indices":[4,0,0],"split_type":[0,0,0],"sum_hessian":[3.89633E0,1.8884634E0,2.0078669E0],"tree_param":{"num_deleted":"0","num_feature":"6","num_nodes":"3","size_leaf_vector":"1"}},{"base_weights":[4.3538596E-2,6.602068E-2,-7.867418E-3,-1.3727205E-2,5.261385E-2,2.1824809E-2,-2.3880396E-2,-2.4612736E-2,2.7919637E-2],"categories":[],"categories_nodes":[],"categories_segments":[],"categories_sizes":[],"default_left":[0,0,0,0,0,0,0,0,0],"id":108,"left_children":[1,3,5,7,-1,-1,-1,-1,-1],"loss_changes":[1.1333028E-2,6.0107872E-2,2.742203E-2,4.2314637E-2,0E0,0E0,0E0,0E0,0E0],"parents":[2147483647,0,0,1,1,2,2,3,3],"right_children":[2,4,6,8,-1,-1,-1,-1,-1],"split_conditions":[1E0,1E0,1E0,1E0,5.261385E-2,2.1824809E-2,-2.3880396E-2,-2.4612736E-2,2.7919637E-2],"split_indices":[2,3,5,5,0,0,0,0,0],"split_type":[0,0,0,0,0,0,0,0,0],"sum_hessian":[8.3566475E0,5.616158E0,2.7404892E0,3.753479E0,1.8626792E0,1.2836864E0,1.4568027E0,2.4304683E0,1.3230106E0],"tree_param":{"num_deleted":"0","num_feature":"6","num_nodes":"9","size_leaf_vector":"1"}},{"base_weights":[-4.5219758E-3,8.985694E-3,-9.730505E-3],"categories":[],"categories_nodes":[],"categories_segments":[],"categories_sizes":[],"default_left":[0,0,0],"id":109,"left_children":[1,-1,-1],"loss_changes":[5.3395564E-3,0E0,0E0],"parents":[2147483647,0,0],"right_children":[2,-1,-1],"split_conditions":[1E0,8.985694E-3,-9.730505E-3],"split_indices":[1,0,0],"split_type":[0,0,0],"sum_hessian":[3.5392647E0,1.5508337E0,1.9884311E0],"tree_param":{"num_deleted":"0","num_feature":"6","num_nodes":"3","size_leaf_vector":"1"}},{"base_weights":[-7.133298E-2],"categories":[],"categories_nodes":[],"categories_segments":[],"categories_sizes":[],"default_left":[0],"id":110,"left_children":[-1],"loss_changes":[0E0],"parents":[2147483647],"right_children":[-1],"split_conditions":[-2.1399897E-2],"split_indices":[0],"split_type":[0],"sum_hessian":[3.9591537E0],"tree_param":{"num_deleted":"0","num_feature":"6","num_nodes":"1","size_leaf_vector":"1"}},{"base_weights":[-6.7794127E-3,-1.5110976E-2,1.1187347E-2],"categories":[],"categories_nodes":[],"categories_segments":[],"categories_sizes":[],"default_left":[0,0,0],"id":111,"left_children":[1,-1,-1],"loss_changes":[1.12569695E-2,0E0,0E0],"parents":[2147483647,0,0],"right_children":[2,-1,-1],"split_conditions":[1E0,-1.5110976E-2,1.1187347E-2],"split_indices":[4,0,0],"split_type":[0,0,0],"sum_hessian":[3.8820052E0,1.8797718E0,2.0022335E0],"tree_param":{"num_deleted":"0","num_feature":"6","num_nodes":"3","size_leaf_vector":"1"}},{"base_weights":[3.635363E-2,6.0155943E-2,-1.3818368E-2,-1.6856084E-2,5.1594917E-2,2.161156E-2,-2.4839237E-2,-2.464535E-2,2.6246397E-2],"categories":[],"categories_nodes":[],"categories_segments":[],"categories_sizes":[],"default_left":[0,0,0,0,0,0,0,0,0],"id":112,"left_children":[1,3,5,7,-1,-1,-1,-1,-1],"loss_changes":[1.1889103E-2,5.8592588E-2,2.842562E-2,3.9483987E-2,0E0,0E0,0E0,0E0,0E0],"parents":[2147483647,0,0,1,1,2,2,3,3],"right_children":[2,4,6,8,-1,-1,-1,-1,-1],"split_conditions":[1E0,1E0,1E0,1E0,5.1594917E-2,2.161156E-2,-2.4839237E-2,-2.464535E-2,2.6246397E-2],"split_indices":[3,2,1,0,0,0,0,0,0],"split_type":[0,0,0,0,0,0,0,0,0],"sum_hessian":[8.259551E0,5.466955E0,2.7925963E0,3.740352E0,1.7266033E0,1.2243361E0,1.5682602E0,2.4314933E0,1.3088586E0],"tree_param":{"num_deleted":"0","num_feature":"6","num_nodes":"9","size_leaf_vector":"1"}},{"base_weights":[-2.8145257E-3,8.765371E-3,-8.957412E-3],"categories":[],"categories_nodes":[],"categories_segments":[],"categories_sizes":[],"default_left":[0,0,0],"id":113,"left_children":[1,-1,-1],"loss_changes":[4.777048E-3,0E0,0E0],"parents":[2147483647,0,0],"right_children":[2,-1,-1],"split_conditions":[1E0,8.765371E-3,-8.957412E-3],"split_indices":[5,0,0],"split_type":[0,0,0],"sum_hessian":[3.5074418E0,1.568814E0,1.9386277E0],"tree_param":{"num_deleted":"0","num_feature":"6","num_nodes":"3","size_leaf_vector":"1"}},{"base_weights":[-6.465112E-2],"categories":[],"categories_nodes":[],"categories_segments":[],"categories_sizes":[],"default_left":[0],"id":114,"left_children":[-1],"loss_changes":[0E0],"parents":[2147483647],"right_children":[-1],"split_conditions":[-1.9395337E-2],"split_indices":[0],"split_type":[0],"sum_hessian":[3.8816025E0],"tree_param":{"num_deleted":"0","num_feature":"6","num_nodes":"1","size_leaf_vector":"1"}},{"base_weights":[-1.7100848E-3,-1.2819943E-2,1.1425258E-2],"categories":[],"categories_nodes":[],"categories_segments":[],"categories_sizes":[],"default_left":[0,0,0],"id":115,"left_children":[1,-1,-1],"loss_changes":[9.578248E-3,0E0,0E0],"parents":[2147483647,0,0],"right_children":[2,-1,-1],"split_conditions":[1E0,-1.2819943E-2,1.1425258E-2],"split_indices":[4,0,0],"split_type":[0,0,0],"sum_hessian":[3.8703668E0,1.8693959E0,2.000971E0],"tree_param":{"num_deleted":"0","num_feature":"6","num_nodes":"3","size_leaf_vector":"1"}},{"base_weights":[3.0619975E-2,5.5171266E-2,-2.1409463E-2,-1.9010408E-2,4.8471842E-2,1.747222E-2,-2.6271524E-2,-2.4244795E-2,2.421592E-2],"categories":[],"categories_nodes":[],"categories_segments":[],"categories_sizes":[],"default_left":[0,0,0,0,0,0,0,0,0],"id":116,"left_children":[1,3,5,7,-1,-1,-1,-1,-1],"loss_changes":[1.2895915E-2,5.4457568E-2,2.4390712E-2,3.5682652E-2,0E0,0E0,0E0,0E0,0E0],"parents":[2147483647,0,0,1,1,2,2,3,3],"right_children":[2,4,6,8,-1,-1,-1,-1,-1],"split_conditions":[1E0,1E0,1E0,1E0,4.8471842E-2,1.747222E-2,-2.6271524E-2,-2.4244795E-2,2.421592E-2],"split_indices":[2,3,0,5,0,0,0,0,0],"split_type":[0,0,0,0,0,0,0,0,0],"sum_hessian":[8.170833E0,5.51029E0,2.660543E0,3.7306592E0,1.7796307E0,1.2615459E0,1.3989971E0,2.4203525E0,1.3103069E0],"tree_param":{"num_deleted":"0","num_feature":"6","num_nodes":"9","size_leaf_vector":"1"}},{"base_weights":[-1.4901317E-3,9.793379E-3,-9.060717E-3],"categories":[],"categories_nodes":[],"categories_segments":[],"categories_sizes":[],"default_left":[0,0,0],"id":117,"left_children":[1,-1,-1],"loss_changes":[5.3738565E-3,0E0,0E0],"parents":[2147483647,0,0],"right_children":[2,-1,-1],"split_conditions":[1E0,9.793379E-3,-9.060717E-3],"split_indices":[1,0,0],"split_type":[0,0,0],"sum_hessian":[3.4770722E0,1.5259644E0,1.951108E0],"tree_param":{"num_deleted":"0","num_feature":"6","num_nodes":"3","size_leaf_vector":"1"}},{"base_weights":[-5.8818687E-2],"categories":[],"categories_nodes":[],"categories_segments":[],"categories_sizes":[],"default_left":[0],"id":118,"left_children":[-1],"loss_changes":[0E0],"parents":[2147483647],"right_children":[-1],"split_conditions":[-1.7645607E-2],"split_indices":[0],"split_type":[0],"sum_hessian":[3.8110201E0],"tree_param":{"num_deleted":"0","num_feature":"6","num_nodes":"1","size_leaf_vector":"1"}},{"base_weights":[1.8178897E-3,-1.0909408E-2,1.1314364E-2],"categories":[],"categories_nodes":[],"categories_segments":[],"categories_sizes":[],"default_left":[0,0,0],"id":119,"left_children":[1,-1,-1],"loss_changes":[8.0350945E-3,0E0,0E0],"parents":[2147483647,0,0],"right_children":[2,-1,-1],"split_conditions":[1E0,-1.0909408E-2,1.1314364E-2],"split_indices":[4,0,0],"split_type":[0,0,0],"sum_hessian":[3.8617287E0,1.864964E0,1.9967647E0],"tree_param":{"num_deleted":"0","num_feature":"6","num_nodes":"3","size_leaf_vector":"1"}},{"base_weights":[2.5595073E-2,-7.1176174E-3,6.848527E-2,-9.351096E-3,9.175428E-3,4.914913E-2,-7.879173E-3],"categories":[],"categories_nodes":[],"categories_segments":[],"categories_sizes":[],"default_left":[0,0,0,0,0,0,0],"id":120,"left_children":[1,3,5,-1,-1,-1,-1],"loss_changes":[1.32447565E-2,6.4525544E-3,4.06949E-2,0E0,0E0,0E0,0E0],"parents":[2147483647,0,0,1,1,2,2],"right_children":[2,4,6,-1,-1,-1,-1],"split_conditions":[1E0,1E0,1E0,-9.351096E-3,9.175428E-3,4.914913E-2,-7.879173E-3],"split_indices":[4,5,5,0,0,0,0],"split_type":[0,0,0,0,0,0,0],"sum_hessian":[8.092528E0,5.064128E0,3.0284002E0,3.1974974E0,1.8666302E0,1.1460477E0,1.8823526E0],"tree_param":{"num_deleted":"0","num_feature":"6","num_nodes":"7","size_leaf_vector":"1"}},{"base_weights":[-3.0887552E-4,9.11006E-3,-7.924876E-3],"categories":[],"categories_nodes":[],"categories_segments":[],"categories_sizes":[],"default_left":[0,0,0],"id":121,"left_children":[1,-1,-1],"loss_changes":[4.365243E-3,0E0,0E0],"parents":[2147483647,0,0],"right_children":[2,-1,-1],"split_conditions":[1E0,9.11006E-3,-7.924876E-3],"split_indices":[1,0,0],"split_type":[0,0,0],"sum_hessian":[3.4490304E0,1.5107596E0,1.9382707E0],"tree_param":{"num_deleted":"0","num_feature":"6","num_nodes":"3","size_leaf_vector":"1"}},{"base_weights":[-5.4018702E-2],"categories":[],"categories_nodes":[],"categories_segments":[],"categories_sizes":[],"default_left":[0],"id":122,"left_children":[-1],"loss_changes":[0E0],"parents":[2147483647],"right_children":[-1],"split_conditions":[-1.620561E-2],"split_indices":[0],"split_type":[0],"sum_hessian":[3.7487586E0],"tree_param":{"num_deleted":"0","num_feature":"6","num_nodes":"1","size_leaf_vector":"1"}},{"base_weights":[5.185373E-3,-9.19469E-3,1.1292772E-2],"categories":[],"categories_nodes":[],"categories_segments":[],"categories_sizes":[],"default_left":[0,0,0],"id":123,"left_children":[1,-1,-1],"loss_changes":[6.8003186E-3,0E0,0E0],"parents":[2147483647,0,0],"right_children":[2,-1,-1],"split_conditions":[1E0,-9.19469E-3,1.1292772E-2],"split_indices":[4,0,0],"split_type":[0,0,0],"sum_hessian":[3.85487E0,1.8585982E0,1.996272E0],"tree_param":{"num_deleted":"0","num_feature":"6","num_nodes":"3","size_leaf_vector":"1"}},{"base_weights":[2.1696432E-2,-1.0492069E-2,6.51992E-2,-1.0020769E-2,7.584232E-3,4.783317E-2,-8.846149E-3],"categories":[],"categories_nodes":[],"categories_segments":[],"categories_sizes":[],"default_left":[0,0,0,0,0,0,0],"id":124,"left_children":[1,3,5,-1,-1,-1,-1],